{"type": "gradient_boosting", "n_estimators": 100, "learning_rate": 0.1, "init_score": 0.5004397537379067, "trees": [{"children_left": [1, 2, 3, 4, -1, -1, 7, -1, -1, 10, 11, -1, -1, 14, -1, -1, 17, 18, 19, -1, -1, 22, -1, -1, 25, -1, 27, -1, -1], "children_right": [16, 9, 6, 5, -1, -1, 8, -1, -1, 13, 12, -1, -1, 15, -1, -1, 24, 21, 20, -1, -1, 23, -1, -1, 26, -1, 28, -1, -1], "feature": [2, 13, 16, 2, -2, -2, 2, -2, -2, 1, 6, -2, -2, 12, -2, -2, 9, 1, 6, -2, -2, 14, -2, -2, 8, -2, 7, -2, -2], "threshold": [-0.071881502866745, 0.33555804193019867, 0.3335510790348053, -0.07307560741901398, -2.0, -2.0, -0.07266910374164581, -2.0, -2.0, -0.07503511384129524, -0.0693674385547638, -2.0, -2.0, -0.07187911495566368, -2.0, -2.0, -1.0550130605697632, -0.04151034727692604, -0.058400485664606094, -2.0, -2.0, -1.463461995124817, -2.0, -2.0, -1.5623218417167664, -2.0, -0.08238223567605019, -2.0, -2.0], "value": [-0.0042901387764106595, -0.07493639803320966, -0.15764499391258002, -0.26214188139748196, -1.5750935666724424, -0.8017596351394837, -0.04752495553162809, -0.4335775321565115, 0.7216457985846503, 0.05705153546069924, 0.12341345727126742, -0.8165744614140612, 0.6788697824281332, -0.15261366678138497, -0.904985521439767, 1.9982425307557117, 0.3166334169938003, 0.06622691292875986, -0.3893286426267957, 1.998242530755712, -2.0017605633802815, 0.26146500816685514, -1.001759789846283, 1.527653931445595, 0.37269457462030164, -2.0017605633802815, 0.3859238826257292, 1.1874310927551728, 1.9982425307557117]}, {"children_left": [1, 2, 3, 4, -1, -1, 7, -1, -1, 10, 11, -1, -1, 14, -1, -1, 17, 18, -1, 20, -1, -1, 23, 24, -1, -1, 27, -1, -1], "children_right": [16, 9, 6, 5, -1, -1, 8, -1, -1, 13, 12, -1, -1, 15, -1, -1, 22, 19, -1, 21, -1, -1, 26, 25, -1, -1, 28, -1, -1], "feature": [10, 10, 5, 8, -2, -2, 4, -2, -2, 16, 4, -2, -2, 12, -2, -2, 2, 7, -2, 6, -2, -2, 1, 16, -2, -2, 6, -2, -2], "threshold": [-0.0490378700196743, -0.0492290947586298, -0.08373913913965225, -1.485165536403656, -2.0, -2.0, -1.140389233827591, -2.0, -2.0, 0.3544013947248459, -0.45956870913505554, -2.0, -2.0, -0.07226020470261574, -2.0, -2.0, -0.07306340336799622, -0.10089750215411186, -2.0, -0.06671580299735069, -2.0, -2.0, -0.058475567027926445, 1.2239148020744324, -2.0, -2.0, -0.039584409445524216, -2.0, -2.0], "value": [0.006732672706901935, -0.06036682466370439, -0.28622011443186635, -0.320212235874535, 1.1322268713509323, -1.3908646304785233, 0.512594739470846, 1.928742651467931, 2.0974008170877223, -0.025065991494199136, -0.10858083067116178, -0.9775135637479594, -0.07222805834816491, 0.06143152051051253, 0.9377260010362339, 0.04625076436931769, 0.27111927919434625, -0.2747494077740423, 1.9327239516716908, -0.49113367746437053, -2.0225017640496046, -1.926139291674504, 0.2991925259527203, 0.3897959731919936, 1.6021763929682966, -2.0721285737411725, 0.16328735509381057, -0.4122598756844149, 1.3305440611249106]}, {"children_left": [1, 2, 3, 4, -1, -1, 7, -1, -1, 10, 11, -1, -1, 14, -1, -1, 17, 18, 19, -1, -1, 22, -1, -1, 25, 26, -1, -1, -1], "children_right": [16, 9, 6, 5, -1, -1, 8, -1, -1, 13, 12, -1, -1, 15, -1, -1, 24, 21, 20, -1, -1, 23, -1, -1, 28, 27, -1, -1, -1], "feature": [2, 13, 2, 6, -2, -2, 16, -2, -2, 1, 12, -2, -2, 6, -2, -2, 12, 6, 8, -2, -2, 16, -2, -2, 11, 2, -2, -2, -2], "threshold": [-0.07186540588736534, 0.33555804193019867, -0.07307595387101173, -0.06946219131350517, -2.0, -2.0, 0.3558223396539688, -2.0, -2.0, -0.06465867161750793, -0.07216940447688103, -2.0, -2.0, -0.04613855853676796, -2.0, -2.0, -0.07123225182294846, -0.06280405819416046, -1.4919438362121582, -2.0, -2.0, 0.049052540212869644, -2.0, -2.0, 4.7867817878723145, -0.07174799218773842, -2.0, -2.0, -2.0], "value": [-0.00850184629177234, -0.06556622113051079, -0.13686575139450108, -0.24569191181998903, 2.220527569141655, -1.0707677609741844, -0.07457215611646256, -0.6546991131438092, 0.13085912214453801, 0.04654614369838363, 0.09036053661629809, 0.1950333491310585, 1.073294709359674, -0.2726730047035644, -1.3908421406370364, 2.017214002062303, 0.25266394284748467, 0.15339596319739987, 0.3174651822035543, -0.9638427459283238, 1.434399437448859, -0.1598270912688951, -1.3716943211439765, 0.23142008135793365, 0.39489865995805407, 0.4085889198813535, -0.09643609949008604, 1.7327942522205009, -2.0352443051980704]}, {"children_left": [1, 2, 3, 4, -1, -1, 7, -1, -1, 10, 11, -1, -1, 14, -1, -1, 17, 18, 19, -1, -1, 22, -1, -1, 25, 26, -1, -1, 29, -1, -1], "children_right": [16, 9, 6, 5, -1, -1, 8, -1, -1, 13, 12, -1, -1, 15, -1, -1, 24, 21, 20, -1, -1, 23, -1, -1, 28, 27, -1, -1, 30, -1, -1], "feature": [2, 13, 10, 1, -2, -2, 4, -2, -2, 2, 13, -2, -2, 16, -2, -2, 6, 8, 0, -2, -2, 8, -2, -2, 12, 16, -2, -2, 0, -2, -2], "threshold": [-0.07173315435647964, 0.04094633087515831, -0.0492299385368824, -0.0813041590154171, -2.0, -2.0, -0.45956870913505554, -2.0, -2.0, -0.07310575619339943, 0.4858671575784683, -2.0, -2.0, 0.501260980963707, -2.0, -2.0, -0.06274067610502243, -1.5021422505378723, -0.08654321357607841, -2.0, -2.0, 2.3694875240325928, -2.0, -2.0, -0.07141973078250885, 0.049052540212869644, -2.0, -2.0, -0.085365891456604, -2.0, -2.0], "value": [-0.005279677772438324, -0.05907550649843467, -0.15367250124848533, -0.29652532523684877, 0.84765736502093, -1.2921865729454423, -0.11306707525179234, -0.9595737971694207, -0.10644363355858423, 0.03477071845201239, -0.14561359919009714, -1.3169673682078558, -0.09605070399377488, 0.10323775872493014, 0.09304864276554771, 0.9878326037097216, 0.2543886493472741, 0.3587922028831773, -0.17339165816190152, -1.8797517156767285, 1.6923664663651574, 0.3816000826422523, 1.6380579168747178, 0.3249145929498394, 0.16256383720123807, -0.18982779165001076, -1.6185711256996302, 0.39518064068293535, 0.32330387843163233, -0.7556876686352206, 1.4876712031693375]}, {"children_left": [1, 2, 3, 4, -1, -1, 7, -1, -1, 10, 11, -1, -1, 14, -1, -1, 17, 18, 19, -1, -1, 22, -1, -1, 25, 26, -1, -1, 29, -1, -1], "children_right": [16, 9, 6, 5, -1, -1, 8, -1, -1, 13, 12, -1, -1, 15, -1, -1, 24, 21, 20, -1, -1, 23, -1, -1, 28, 27, -1, -1, 30, -1, -1], "feature": [10, 16, 8, 2, -2, -2, 11, -2, -2, 13, 2, -2, -2, 1, -2, -2, 5, 4, 15, -2, -2, 16, -2, -2, 14, 3, -2, -2, 2, -2, -2], "threshold": [-0.0490378700196743, 0.29438096284866333, 1.7509686350822449, -0.071881502866745, -2.0, -2.0, -0.06300914287567139, -2.0, -2.0, 0.03005764912813902, -0.07243534177541733, -2.0, -2.0, -0.0761241540312767, -2.0, -2.0, -0.0725952535867691, 0.0267316410318017, -0.07072513177990913, -2.0, -2.0, -0.6281735002994537, -2.0, -2.0, -1.510824978351593, -0.3691282570362091, -2.0, -2.0, -0.07178322225809097, -2.0, -2.0], "value": [0.0009953295570099034, -0.05440653334549649, -0.12938802657582182, -0.1498322534553414, -0.7029196890281252, 0.44742194044898126, 0.23974384763772383, 1.7560662339301156, -1.0957314631410304, 0.014729628423324958, -0.07422013109738997, -0.5644139423698429, 0.946719045766793, 0.11815958135438875, 0.7143267536754075, -0.48662602714686043, 0.2051826077801649, 0.13286112196616615, 0.04220235878092109, -1.9521850218764176, 0.274206258669367, 0.3368433391329671, 0.2911835813599439, 1.6375321289619427, 0.35208562583985037, -0.05948340950961825, -1.9800811862174068, 1.6025727927662226, 0.36536204633499475, 1.8007265177694862, 1.5508207922815147]}, {"children_left": [1, 2, 3, 4, -1, -1, 7, -1, -1, 10, 11, -1, -1, 14, -1, -1, 17, 18, 19, -1, -1, 22, -1, -1, 25, 26, -1, -1, 29, -1, -1], "children_right": [16, 9, 6, 5, -1, -1, 8, -1, -1, 13, 12, -1, -1, 15, -1, -1, 24, 21, 20, -1, -1, 23, -1, -1, 28, 27, -1, -1, 30, -1, -1], "feature": [12, 16, 8, 12, -2, -2, 1, -2, -2, 13, 6, -2, -2, 2, -2, -2, 8, 12, 4, -2, -2, 5, -2, -2, 4, 3, -2, -2, 2, -2, -2], "threshold": [-0.07212388142943382, 0.29438096284866333, 1.8954171538352966, -0.07226863130927086, -2.0, -2.0, -0.07490571960806847, -2.0, -2.0, 0.011577631928957999, -0.06914378330111504, -2.0, -2.0, -0.07315235212445259, -2.0, -2.0, -0.9143726527690887, -0.07202212139964104, -0.7513489425182343, -2.0, -2.0, -0.08308520913124084, -2.0, -2.0, -1.0431291460990906, -0.3841542750597, -2.0, -2.0, -0.07309065759181976, -2.0, -2.0], "value": [0.01721986466110708, -0.042236985723554464, -0.11514786833278166, -0.13804807823443485, -0.027887720475627105, -0.6983653915947113, 0.1616459730872008, 1.5321465310609423, -0.6746104006843494, 0.02327398641190058, -0.08157593356399802, 0.3294918696823494, -0.7102722616238732, 0.10625681077785241, -0.29564383653531867, 0.7355417576602181, 0.15573472489790077, -0.06768665109841919, 0.16207329119978367, -1.6467880264407266, 1.1680730408251014, -0.18256662224752065, -1.1728796886515747, 0.7650426099620197, 0.22697052594020584, 0.0029152732920765642, 0.7673303908573761, -1.1544258214964813, 0.2591552583647987, -1.778169737948853, 1.1640434532870918]}, {"children_left": [1, 2, 3, 4, -1, -1, 7, -1, -1, 10, 11, -1, -1, 14, -1, -1, 17, 18, 19, -1, -1, 22, -1, -1, 25, 26, -1, -1, 29, -1, -1], "children_right": [16, 9, 6, 5, -1, -1, 8, -1, -1, 13, 12, -1, -1, 15, -1, -1, 24, 21, 20, -1, -1, 23, -1, -1, 28, 27, -1, -1, 30, -1, -1], "feature": [12, 13, 16, 1, -2, -2, 5, -2, -2, 1, 6, -2, -2, 6, -2, -2, 5, 3, 14, -2, -2, 10, -2, -2, 1, 13, -2, -2, 0, -2, -2], "threshold": [-0.07212498411536217, 0.503000944852829, 0.3335510790348053, -0.08116045966744423, -2.0, -2.0, -0.08339253440499306, -2.0, -2.0, -0.07503511384129524, -0.06935663893818855, -2.0, -2.0, -0.047049349173903465, -2.0, -2.0, -0.0837847925722599, -1.0372778177261353, 0.7625981569290161, -2.0, -2.0, -0.04922572523355484, -2.0, -2.0, -0.0786142461001873, -1.9755319356918335, -2.0, -2.0, -0.0835573598742485, -2.0, -2.0], "value": [-0.007271131918596606, -0.07727579428127247, -0.13693875145913698, -0.19415358084575618, 0.0009856937108380318, -0.9302714244880761, -0.07886569963171865, -0.4010504339141481, 1.186052083630217, 0.03201589545817942, 0.09657327712033742, -0.8070967155355473, 0.5666831981588453, -0.18190954573603046, -0.9061017521329275, 1.7923161140242798, 0.14522154168960985, -0.0371676525206433, 0.2109992132893461, 2.023232504164059, -0.641864142167942, -0.17408730262270636, 2.169210275894534, -1.0562561666823806, 0.1792776152973335, 0.29624104867931633, -1.7051575920116142, 1.4278573923976194, 0.13608089274148746, 0.1364528550792317, 1.163293239441691]}, {"children_left": [1, 2, 3, 4, -1, -1, 7, -1, -1, 10, 11, -1, -1, 14, -1, -1, 17, 18, 19, -1, -1, 22, -1, -1, 25, 26, -1, -1, 29, -1, -1], "children_right": [16, 9, 6, 5, -1, -1, 8, -1, -1, 13, 12, -1, -1, 15, -1, -1, 24, 21, 20, -1, -1, 23, -1, -1, 28, 27, -1, -1, 30, -1, -1], "feature": [12, 13, 8, 16, -2, -2, 5, -2, -2, 11, 10, -2, -2, 12, -2, -2, 8, 2, 11, -2, -2, 4, -2, -2, 16, 5, -2, -2, 0, -2, -2], "threshold": [-0.07215677946805954, -0.42937567830085754, -0.6993757784366608, -0.31522783637046814, -2.0, -2.0, -0.08335569500923157, -2.0, -2.0, -0.06292137131094933, -0.04922909662127495, -2.0, -2.0, -0.07227721065282822, -2.0, -2.0, 0.41126589477062225, -0.07267224043607712, -0.06316311657428741, -2.0, -2.0, -0.2650485783815384, -2.0, -2.0, -0.225979283452034, -0.07685030996799469, -2.0, -2.0, -0.0849471166729927, -2.0, -2.0], "value": [0.004989133224954037, -0.06005910250235288, -0.16289196884307877, -0.05877760549584027, -1.589689270808823, 0.1484019212590601, -0.2430600286204524, -1.223097351151018, 1.0221433661491686, -0.014441515178271608, 0.039015583506354236, -1.3695822098688666, 0.2629391266639292, -0.11667333894011074, 2.3398821305986783, -0.5880771643930478, 0.11750500042894445, 0.051788423634381214, -0.09687739212100106, 0.7216444554479747, -0.8153039619073943, 0.1277256388763392, -0.20815032554514754, 0.9550927200825824, 0.22970403398063802, 0.1416447379935172, -0.4716031769174445, 1.3973099293584104, 0.3540230400801025, 1.7432525335826907, 1.2663918389307935]}, {"children_left": [1, 2, 3, 4, -1, -1, 7, -1, -1, 10, 11, -1, -1, 14, -1, -1, 17, 18, 19, -1, -1, 22, -1, -1, 25, 26, -1, -1, 29, -1, -1], "children_right": [16, 9, 6, 5, -1, -1, 8, -1, -1, 13, 12, -1, -1, 15, -1, -1, 24, 21, 20, -1, -1, 23, -1, -1, 28, 27, -1, -1, 30, -1, -1], "feature": [12, 16, 3, 7, -2, -2, 10, -2, -2, 8, 1, -2, -2, 9, -2, -2, 4, 15, 9, -2, -2, 14, -2, -2, 8, 16, -2, -2, 12, -2, -2], "threshold": [-0.07215146347880363, 0.12470832467079163, 2.1557306051254272, -0.10139893367886543, -2.0, -2.0, -0.04919152148067951, -2.0, -2.0, 1.0451918840408325, -0.07622777670621872, -2.0, -2.0, -1.1442553400993347, -2.0, -2.0, -0.36230865120887756, -0.06494931876659393, 1.6668760180473328, -2.0, -2.0, -1.463461995124817, -2.0, -2.0, -1.483215093612671, -1.8990287780761719, -2.0, -2.0, -0.07213207334280014, -2.0, -2.0], "value": [-0.00192648772411701, -0.062049179309288514, -0.14209343928012624, -0.15620808532613406, 1.9947790669350614, -0.7065628825654071, 0.29142783213296913, -1.6916911303304087, 1.7163952187850924, -0.012825285366003148, -0.03527051574232793, 0.004109857207871362, -0.8088929581237759, 0.2763728752520279, -2.070225677332429, 1.4061243281009437, 0.10559354047881227, 0.004610730888841986, -0.04788583576091902, -0.2902435780158429, 2.116956449907434, 0.21647187486823477, -1.027781124733254, 1.3865288501291766, 0.18255881697711376, -0.2116986326389559, 1.8224753866229244, -1.352768421976313, 0.21235734514577026, 1.9363802809011497, 0.8708951505163485]}, {"children_left": [1, 2, 3, 4, -1, -1, 7, -1, -1, 10, 11, -1, -1, 14, -1, -1, 17, 18, 19, -1, -1, 22, -1, -1, 25, 26, -1, -1, 29, -1, -1], "children_right": [16, 9, 6, 5, -1, -1, 8, -1, -1, 13, 12, -1, -1, 15, -1, -1, 24, 21, 20, -1, -1, 23, -1, -1, 28, 27, -1, -1, 30, -1, -1], "feature": [12, 10, 5, 1, -2, -2, 5, -2, -2, 12, 7, -2, -2, 4, -2, -2, 13, 4, 3, -2, -2, 8, -2, -2, 4, 4, -2, -2, 12, -2, -2], "threshold": [-0.07212385535240173, -0.0492299385368824, -0.08373913913965225, -0.0813041590154171, -2.0, -2.0, -0.0834994986653328, -2.0, -2.0, -0.07226987183094025, -0.10038239881396294, -2.0, -2.0, -0.6540888547897339, -2.0, -2.0, -2.047696352005005, 2.4582334756851196, -1.6927627325057983, -2.0, -2.0, -1.6202095746994019, -2.0, -2.0, -1.0431291460990906, -1.5294294953346252, -2.0, -2.0, -0.07207705453038216, -2.0, -2.0], "value": [-0.0010395005845403892, -0.052590019004375675, -0.19382398894982097, -0.21880802262969348, 1.191121301639, -1.1112124975165962, 0.4974009428599852, 2.2428722796868623, 1.8840599799471924, -0.030586175860701302, 0.1508514521215922, 0.8184915727497796, -2.1965670719350507, -0.053961575784800424, -0.6299340073654843, -0.02773837824663912, 0.12032297451455531, -0.39409139443200186, -0.4252524375028385, -1.7137297151484239, -1.766870185682064, -0.3785108728965836, -1.622089278097362, -1.5714277098081315, 0.13197009230202447, -0.07625667212408482, 1.5911233965026559, -0.6512026841043587, 0.16158855448332463, 1.4682758926094466, 0.6321822929250732]}, {"children_left": [1, 2, 3, 4, -1, -1, 7, -1, -1, 10, 11, -1, -1, 14, -1, -1, 17, 18, 19, -1, -1, 22, -1, -1, 25, 26, -1, -1, 29, -1, -1], "children_right": [16, 9, 6, 5, -1, -1, 8, -1, -1, 13, 12, -1, -1, 15, -1, -1, 24, 21, 20, -1, -1, 23, -1, -1, 28, 27, -1, -1, 30, -1, -1], "feature": [2, 13, 7, 7, -2, -2, 11, -2, -2, 6, 3, -2, -2, 4, -2, -2, 1, 12, 5, -2, -2, 13, -2, -2, 10, 6, -2, -2, 11, -2, -2], "threshold": [-0.07267224043607712, 0.017555298749357462, -0.09664005413651466, -0.1002805083990097, -2.0, -2.0, -0.05755341053009033, -2.0, -2.0, -0.0694035068154335, 0.4590562880039215, -2.0, -2.0, -1.0431291460990906, -2.0, -2.0, -0.07945964485406876, -0.07223503291606903, -0.08371749520301819, -2.0, -2.0, -2.062846064567566, -2.0, -2.0, -0.04784104414284229, -0.06060040555894375, -2.0, -2.0, 4.7867817878723145, -2.0, -2.0], "value": [1.4728007940774644e-07, -0.05365478968106809, -0.11123612505984865, -0.09134387550694865, -0.6117376806694216, 0.09703272274407071, -0.3698353692475491, -1.7314943884716578, 1.7065876267333964, -0.005184425090069307, -0.3177965439255349, -1.8836229074931417, 0.19550050964480564, 0.017069318962624844, -0.9320017685369149, 0.19432390190975837, 0.09549609012836029, 0.21989871025101662, -0.06273746740905169, -1.2685892795393574, 1.5472830772848756, 0.27485574479602987, -1.5147752331149544, 1.3566851060811782, 0.05110345390201821, -0.00526558021173845, 0.1840169673217187, -0.649730663186868, 0.21036834393771164, 1.2416757005904202, -0.3265234525301724]}, {"children_left": [1, 2, 3, 4, -1, -1, 7, -1, -1, 10, 11, -1, -1, 14, -1, -1, 17, 18, 19, -1, -1, 22, -1, -1, 25, 26, -1, -1, 29, -1, -1], "children_right": [16, 9, 6, 5, -1, -1, 8, -1, -1, 13, 12, -1, -1, 15, -1, -1, 24, 21, 20, -1, -1, 23, -1, -1, 28, 27, -1, -1, 30, -1, -1], "feature": [12, 8, 16, 13, -2, -2, 13, -2, -2, 1, 0, -2, -2, 11, -2, -2, 4, 14, 16, -2, -2, 7, -2, -2, 13, 7, -2, -2, 6, -2, -2], "threshold": [-0.07218193262815475, 2.117217540740967, 0.12470832467079163, 0.8983414173126221, -2.0, -2.0, 0.8398744165897369, -2.0, -2.0, -0.07475748658180237, -0.08508674800395966, -2.0, -2.0, -0.06045381911098957, -2.0, -2.0, -0.45956870913505554, -0.6582913398742676, 0.3644794374704361, -2.0, -2.0, -0.08541542664170265, -2.0, -2.0, -1.6051435470581055, -0.0978040061891079, -2.0, -2.0, -0.06905021145939827, -2.0, -2.0], "value": [-0.0023065939426219705, -0.05415843501485942, -0.061878785936835844, -0.1432049507170408, -0.5059689183680082, -1.256231052257346, -0.014584493187732056, -0.23046745168720748, 0.6978467518882226, 0.3867593843069072, 0.3443326262995189, 1.7756022839770165, 1.444042221227173, 0.5352530373327669, 2.081504634826127, 2.2268133023986834, 0.06794862077442515, -0.03705523410654823, 0.098282479846946, -0.0009186343326468793, 1.1984248661230752, -0.15010203046770226, -0.8697176421353915, 1.4996776484443775, 0.13916862669369404, -0.048917482655985264, 0.9394838329405646, -0.6754582383281352, 0.178765702346258, 1.4648431289622386, 0.6766315504370763]}, {"children_left": [1, 2, 3, 4, -1, -1, 7, -1, -1, 10, 11, -1, -1, 14, -1, -1, 17, 18, 19, -1, -1, 22, -1, -1, -1], "children_right": [16, 9, 6, 5, -1, -1, 8, -1, -1, 13, 12, -1, -1, 15, -1, -1, 24, 21, 20, -1, -1, 23, -1, -1, -1], "feature": [12, 1, 0, 2, -2, -2, 13, -2, -2, 2, 7, -2, -2, 14, -2, -2, 16, 11, 2, -2, -2, 0, -2, -2, -2], "threshold": [-0.0711316391825676, -0.07687200605869293, -0.0873485654592514, -0.07267148047685623, -2.0, -2.0, -0.5764026343822479, -2.0, -2.0, -0.07305241376161575, -0.10133147239685059, -2.0, -2.0, -1.4160990118980408, -2.0, -2.0, 1.0360622107982635, 8.994357824325562, -0.0716480128467083, -2.0, -2.0, 0.012544344179332256, -2.0, -2.0, -2.0], "value": [0.003942256483670257, -0.013924518801075193, 0.01672416716794388, -0.012404274087316682, -0.1644618514019387, 0.5925252567202918, 0.18245495362028827, -0.2768136343406286, 1.020623531705032, -0.08556120648769802, -0.2657670545927531, 1.5006381175466739, -1.493433072117835, -0.054110185827853576, 1.4474568443069944, -0.31012756315624607, 0.19429213163268935, 0.20597936092729394, 0.2132589775413136, 1.511998902639593, 1.258638755283575, -0.06700626209844418, -1.7815131947498082, 1.4381596531381649, -3.397022108513499]}, {"children_left": [1, 2, 3, 4, -1, -1, 7, -1, -1, 10, 11, -1, -1, 14, -1, -1, 17, 18, 19, -1, -1, 22, -1, -1, 25, 26, -1, -1, -1], "children_right": [16, 9, 6, 5, -1, -1, 8, -1, -1, 13, 12, -1, -1, 15, -1, -1, 24, 21, 20, -1, -1, 23, -1, -1, 28, 27, -1, -1, -1], "feature": [2, 2, 10, 12, -2, -2, 13, -2, -2, 8, 14, -2, -2, 1, -2, -2, 16, 10, 3, -2, -2, 7, -2, -2, 4, 4, -2, -2, -2], "threshold": [-0.07186540588736534, -0.0731644481420517, -0.04920021444559097, -0.07228336110711098, -2.0, -2.0, 1.243287980556488, -2.0, -2.0, -1.1543766856193542, 2.7992063760757446, -2.0, -2.0, -0.07917049154639244, -2.0, -2.0, 1.0515405237674713, -0.049196938052773476, 0.6705759987235069, -2.0, -2.0, -0.09915255755186081, -2.0, -2.0, -0.16778850834816694, -0.41093868017196655, -2.0, -2.0, -2.0], "value": [-0.001558626866198482, -0.02587032162545203, -0.12523007169296044, -0.05625773434783041, -1.5624546145601308, -0.03829656628382429, -0.31873579591124174, -1.6624382999070508, 0.955008233956878, -0.00395037676353788, -0.1641880514720046, -0.8012875964290468, 2.0507204543268283, 0.017395152896531606, 0.3553336336200906, -0.17790133647077422, 0.12048286073323297, 0.13025392702930508, 0.35365021999175283, 1.5303033452846133, 2.1480578690152803, 0.11054248941497148, -0.6238893789066098, 0.7920920707776661, -0.3615564098729926, -0.6506097067899053, -2.706637342263568, -3.0365744257137433, 1.2764059414240856]}, {"children_left": [1, 2, 3, 4, -1, -1, 7, -1, -1, 10, 11, -1, -1, 14, -1, -1, 17, 18, 19, -1, -1, -1, 23, 24, -1, -1, 27, -1, -1], "children_right": [16, 9, 6, 5, -1, -1, 8, -1, -1, 13, 12, -1, -1, 15, -1, -1, 22, 21, 20, -1, -1, -1, 26, 25, -1, -1, 28, -1, -1], "feature": [8, 2, 8, 1, -2, -2, 7, -2, -2, 16, 8, -2, -2, 9, -2, -2, 5, 11, 14, -2, -2, -2, 12, 6, -2, -2, 16, -2, -2], "threshold": [1.0738067626953125, -0.07308647036552429, -0.5216676592826843, -0.08129463344812393, -2.0, -2.0, -0.10142535716295242, -2.0, -2.0, 0.3532555401325226, 0.9524868428707123, -2.0, -2.0, 1.8899816870689392, -2.0, -2.0, -0.08365296572446823, -0.06259731203317642, 0.38369429111480713, -2.0, -2.0, -2.0, -0.07223247736692429, -0.0681336410343647, -2.0, -2.0, -0.10835428908467293, -2.0, -2.0], "value": [1.6951409422062914e-05, -0.024561427612801702, -0.11506669685426878, 0.01747124384178054, 2.2816549499036047, -0.1061284562453365, -0.16088228129240928, 2.0780268690421635, -0.773706228989198, 0.01137691245029452, -0.04215754877108964, -0.13841470364878444, -1.5347208871292866, 0.07929046449560419, 0.27741833844067887, 1.7886083419612284, 0.1327748155646728, 0.37457557942651215, 0.40658237174160194, 1.8430742267217917, -0.032429382469235137, -1.6490423510151428, 0.08110798567966439, -0.12123835469633784, -1.7481883756633918, 0.27699196213985217, 0.130618260452516, 0.43417741352589545, 1.4321497103178524]}, {"children_left": [1, 2, 3, 4, -1, -1, 7, -1, -1, 10, 11, -1, -1, 14, -1, -1, 17, 18, 19, -1, -1, -1, 23, 24, -1, -1, 27, -1, -1], "children_right": [16, 9, 6, 5, -1, -1, 8, -1, -1, 13, 12, -1, -1, 15, -1, -1, 22, 21, 20, -1, -1, -1, 26, 25, -1, -1, 28, -1, -1], "feature": [10, 16, 7, 14, -2, -2, 13, -2, -2, 13, 2, -2, -2, 2, -2, -2, 14, 9, 11, -2, -2, -2, 12, 3, -2, -2, 2, -2, -2], "threshold": [-0.048645371571183205, 0.29427245259284973, -0.09444092586636543, -1.2266470789909363, -2.0, -2.0, -1.9827408194541931, -2.0, -2.0, 0.03005764912813902, -0.07243383303284645, -2.0, -2.0, -0.07310996577143669, -2.0, -2.0, -1.6055509448051453, -0.7426651380956173, 7.083365544676781, -2.0, -2.0, -2.0, -0.07222937792539597, 1.228117048740387, -2.0, -2.0, -0.0717991255223751, -2.0, -2.0], "value": [0.0018331802232700721, -0.016943194964152093, -0.06317129334561153, -0.08830975666136652, 0.8209880298923596, -0.4866461445845725, 0.0625210232331633, -1.4477134229248796, 0.5498488874660914, 0.027354000045108764, -0.041879307120299476, -0.3458661513150486, 0.5928991275797734, 0.0962479282538238, -0.123169851310539, 0.7129142640531771, 0.13544720722662254, -0.33394731961175994, -0.5277248302634469, -2.417448979496033, -1.6981601033128624, 1.3287009721315015, 0.15283218970211826, -0.3567014232521485, -1.5071049828778995, -1.6049474231453258, 0.16244603145597228, 1.5654553083749214, 0.749767963921984]}, {"children_left": [1, 2, 3, 4, -1, -1, -1, 8, 9, -1, -1, -1, 13, 14, 15, -1, -1, 18, -1, -1, 21, 22, -1, -1, 25, -1, -1], "children_right": [12, 7, 6, 5, -1, -1, -1, 11, 10, -1, -1, -1, 20, 17, 16, -1, -1, 19, -1, -1, 24, 23, -1, -1, 26, -1, -1], "feature": [2, 7, 4, 16, -2, -2, -2, 8, 13, -2, -2, -2, 10, 5, 6, -2, -2, 3, -2, -2, 11, 15, -2, -2, 10, -2, -2], "threshold": [-0.07326129078865051, -0.10140079259872437, -0.07052842807024717, 0.3802870959043503, -2.0, -2.0, -2.0, 1.5786281824111938, 0.35601580142974854, -2.0, -2.0, -2.0, -0.0492130983620882, -0.08328375220298767, -0.06874194741249084, -2.0, -2.0, -0.23985419422388077, -2.0, -2.0, -0.06329904496669769, -0.07095010578632355, -2.0, -2.0, -0.04920648783445358, -2.0, -2.0], "value": [-0.00027003663351136677, -0.21591856685056784, 0.5019164338007714, 0.4687913212095112, 1.7865282975205543, 1.989366773440401, 2.315708179562051, -0.2877020669157017, -0.31093665289100947, -1.4093364909184423, -1.7413044438032237, 1.6289322511664373, 0.007853709367816078, -0.05096872152373257, -0.06294465775391742, -0.08498703574619944, -1.1365997768700529, 0.47397648323270375, 2.258240414454585, 1.850119276556525, 0.033921640026508895, 0.23013068971617276, -1.9564382458394936, 1.2957005681777731, 0.019708616992452042, 0.7359305961133877, 0.009491051375400125]}, {"children_left": [1, 2, 3, -1, 5, -1, -1, 8, 9, -1, -1, 12, -1, -1, 15, 16, 17, -1, -1, 20, -1, -1, 23, 24, -1, -1, 27, -1, -1], "children_right": [14, 7, 4, -1, 6, -1, -1, 11, 10, -1, -1, 13, -1, -1, 22, 19, 18, -1, -1, 21, -1, -1, 26, 25, -1, -1, 28, -1, -1], "feature": [8, 1, 9, -2, 15, -2, -2, 15, 15, -2, -2, 12, -2, -2, 4, 10, 8, -2, -2, 2, -2, -2, 7, 11, -2, -2, 12, -2, -2], "threshold": [1.0738067626953125, -0.08136161789298058, -0.20721155777573586, -2.0, -0.07092652097344398, -2.0, -2.0, -0.07098955661058426, -0.07099686935544014, -2.0, -2.0, -0.07226863875985146, -2.0, -2.0, -0.6540888547897339, -0.04863886535167694, 1.1252915859222412, -2.0, -2.0, -0.07063732668757439, -2.0, -2.0, -0.10112724080681801, -0.06259731203317642, -2.0, -2.0, -0.07225612550973892, -2.0, -2.0], "value": [-0.00219341837163857, -0.02147872577970662, 0.4470627196034155, 1.413604797060628, 0.48568122323536883, 2.007079365955916, 1.784903868353793, -0.024569368559278666, -0.27861298807323115, -1.723071377340124, -1.3791663074900748, -0.01909133902798053, 0.48799501340195006, -0.17470017096436932, 0.0985921265075116, -0.01792349804912329, -0.11954012301441987, 2.0166705194276315, -0.7334265931039685, 0.1726076737608078, 1.5337113269994063, 0.3681383516614984, 0.15218931380356376, 0.3341354698783997, 1.5659451479580186, -1.5247270517429687, 0.09784176069030116, -1.8320527744789592, 0.7095454220595745]}, {"children_left": [1, 2, 3, 4, -1, -1, 7, -1, -1, 10, 11, -1, -1, 14, -1, -1, 17, 18, 19, -1, -1, 22, -1, -1, 25, 26, -1, -1, 29, -1, -1], "children_right": [16, 9, 6, 5, -1, -1, 8, -1, -1, 13, 12, -1, -1, 15, -1, -1, 24, 21, 20, -1, -1, 23, -1, -1, 28, 27, -1, -1, 30, -1, -1], "feature": [10, 11, 9, 3, -2, -2, 8, -2, -2, 1, 4, -2, -2, 12, -2, -2, 4, 0, 12, -2, -2, 14, -2, -2, 14, 10, -2, -2, 10, -2, -2], "threshold": [-0.049127956852316856, -0.06292063742876053, -1.0550130605697632, -0.725960910320282, -2.0, -2.0, 1.016146719455719, -2.0, -2.0, -0.08031235262751579, 2.7986435890197754, -2.0, -2.0, -0.07227148115634918, -2.0, -2.0, -0.36230865120887756, -0.08727575093507767, -0.072198785841465, -2.0, -2.0, -0.8477432727813721, -2.0, -2.0, -1.131921112537384, -0.04911038279533386, -2.0, -2.0, -0.0491157341748476, -2.0, -2.0], "value": [0.003933167395120602, -0.02259401537566663, 0.007068498140296961, -0.18708463867705769, 1.142952835880596, -1.0359139152759163, 0.024395665956948757, 0.03898790443171179, 1.0144958437884386, -0.10765037943348996, -0.39611544548225086, -1.8322037429600335, 1.421164268313138, -0.0658726802126349, 1.1670945081217896, -0.4279998517574852, 0.06771762933836185, 0.008920425781681524, 0.2188123921400206, -0.6288414964045613, 1.3985224833223502, -0.020814269452416493, 0.42521380139187664, -0.4920446945470994, 0.1296808361634789, 0.43716228029577286, 1.8968636018847795, 1.5923109583597777, 0.11480270176998073, -0.7114802654930212, 0.790538842811902]}, {"children_left": [1, 2, 3, 4, -1, -1, 7, -1, -1, 10, 11, -1, -1, 14, -1, -1, 17, 18, 19, -1, -1, 22, -1, -1, 25, -1, 27, -1, -1], "children_right": [16, 9, 6, 5, -1, -1, 8, -1, -1, 13, 12, -1, -1, 15, -1, -1, 24, 21, 20, -1, -1, 23, -1, -1, 26, -1, 28, -1, -1], "feature": [2, 16, 14, 2, -2, -2, 1, -2, -2, 6, 6, -2, -2, 14, -2, -2, 16, 14, 12, -2, -2, 8, -2, -2, 14, -2, 15, -2, -2], "threshold": [-0.07173315435647964, -0.04321708343923092, -0.2793874740600586, -0.0728716179728508, -2.0, -2.0, -0.0802610032260418, -2.0, -2.0, -0.06923288106918335, -0.0693083107471466, -2.0, -2.0, -1.3213730454444885, -2.0, -2.0, 1.0360622107982635, -0.2793874740600586, -0.07201165333390236, -2.0, -2.0, -1.5623218417167664, -2.0, -2.0, -0.4688393771648407, -2.0, -0.06949615478515625, -2.0, -2.0], "value": [0.006387447004800983, -0.01452599813781592, -0.07309726918871029, 0.009572905782932718, -0.6278853336456041, 0.7200250111099966, -0.1399628518863626, -0.2561572046101461, -1.0394011256433224, 0.013837255166357292, 0.09902309332240561, 0.08920559986142321, 1.1907733712130282, -0.02219372959992646, 0.943270375400432, -0.1681197749896279, 0.10812123821469222, 0.1217206717729861, 0.04345496301550503, -0.6727932103196967, 0.7275064403793216, 0.18019505187915022, -1.704709369023418, 1.257755941649081, -0.5809167287388676, -2.078810060432136, -0.6118973079642663, -2.745736395321663, -2.4271587655200624]}, {"children_left": [1, 2, 3, 4, -1, -1, 7, -1, -1, 10, -1, -1, 13, 14, 15, -1, -1, 18, -1, -1, 21, 22, -1, -1, 25, -1, -1], "children_right": [12, 9, 6, 5, -1, -1, 8, -1, -1, 11, -1, -1, 20, 17, 16, -1, -1, 19, -1, -1, 24, 23, -1, -1, 26, -1, -1], "feature": [10, 15, 6, 8, -2, -2, 13, -2, -2, 1, -2, -2, 2, 7, 6, -2, -2, 8, -2, -2, 6, 1, -2, -2, 10, -2, -2], "threshold": [-0.0492299385368824, -0.07074345648288727, -0.06940042972564697, 0.22438380867242813, -2.0, -2.0, -1.9359074831008911, -2.0, -2.0, -0.06271738931536674, -2.0, -2.0, -0.07322166860103607, -0.10140412673354149, -0.06927011534571648, -2.0, -2.0, -0.9649854302406311, -2.0, -2.0, -0.06901457533240318, -0.08109351620078087, -2.0, -2.0, -0.048645371571183205, -2.0, -2.0], "value": [-0.008247476804207886, -0.1256818427603158, -0.13716060857133539, -0.03302343909218472, -0.416122746776573, 3.2045057313956202, -0.19461559862879788, 1.2437273278499241, -1.0953906667695659, 0.39086261873556916, 1.5907589885977484, 1.695938501227432, 0.004976466485831199, -0.15752311402692734, 0.41094605608048695, 1.554019698093976, 1.7818067803679134, -0.19628237562516018, 0.47364935391886537, -1.2355353673991494, 0.014895272049596966, 0.06498857137387601, 0.9389746149632162, 0.16291178266754103, -0.011391310764133597, -0.16953502961645736, 0.6597032981550871]}, {"children_left": [1, 2, 3, 4, -1, -1, -1, 8, 9, -1, -1, 12, -1, -1, 15, 16, 17, -1, -1, 20, -1, -1, 23, 24, -1, -1, 27, -1, -1], "children_right": [14, 7, 6, 5, -1, -1, -1, 11, 10, -1, -1, 13, -1, -1, 22, 19, 18, -1, -1, 21, -1, -1, 26, 25, -1, -1, 28, -1, -1], "feature": [2, 8, 2, 10, -2, -2, -2, 13, 6, -2, -2, 7, -2, -2, 6, 12, 16, -2, -2, 4, -2, -2, 7, 7, -2, -2, 3, -2, -2], "threshold": [-0.07309861481189728, -1.450693964958191, -0.0732169821858406, -0.049234550446271896, -2.0, -2.0, -2.0, 0.5749980211257935, -0.06947027519345284, -2.0, -2.0, -0.10038898512721062, -2.0, -2.0, -0.06940391287207603, -0.07218387350440025, 0.41725416481494904, -2.0, -2.0, 0.07536168396472931, -2.0, -2.0, -0.10073152929544449, -0.10129841417074203, -2.0, -2.0, 0.6407793462276459, -2.0, -2.0], "value": [-0.005755502090272914, -0.07429023585958505, 0.5917264987327105, 0.6634003145532814, 2.873262668111321, 3.075380946119549, 1.8128384507813984, -0.08282891194410172, -0.13111756023334392, 2.2004224950927767, -0.7049464746482134, 0.03505220005610767, 0.34808814431449087, -1.660932968347381, 0.018415229908725492, -0.25179648512767494, -0.35929357486426017, -1.4619012051633455, -2.025603896393403, 0.39318605329183676, 1.23091860671067, 1.9846014085157244, 0.02713173684538368, 0.12024268183399311, -1.0007575837354397, 0.6736953674774951, 0.0025432154503333506, -0.1491397451022398, 0.509213739612743]}, {"children_left": [1, 2, 3, 4, -1, -1, 7, -1, -1, 10, 11, -1, -1, 14, -1, -1, 17, 18, 19, -1, -1, 22, -1, -1, 25, 26, -1, -1, 29, -1, -1], "children_right": [16, 9, 6, 5, -1, -1, 8, -1, -1, 13, 12, -1, -1, 15, -1, -1, 24, 21, 20, -1, -1, 23, -1, -1, 28, 27, -1, -1, 30, -1, -1], "feature": [9, 2, 7, 11, -2, -2, 6, -2, -2, 1, 12, -2, -2, 12, -2, -2, 9, 10, 0, -2, -2, 14, -2, -2, 8, 4, -2, -2, 11, -2, -2], "threshold": [0.37286315858364105, -0.07308544591069221, -0.10115509107708931, -0.06333683058619499, -2.0, -2.0, -0.06935473531484604, -2.0, -2.0, -0.07673852890729904, -0.07227066531777382, -2.0, -2.0, -0.07213935628533363, -2.0, -2.0, 1.086801290512085, -0.04918982647359371, -0.08769796043634415, -2.0, -2.0, -0.4688394069671631, -2.0, -2.0, -0.87416011095047, 0.9507023394107819, -2.0, -2.0, -0.06333212181925774, -2.0, -2.0], "value": [-0.003496690290788447, 0.027926394177890994, -0.048936494386839884, 0.03671296918335076, -0.8738897226345482, 0.44042200915075064, -0.13764486737025172, 0.8269811443826907, -0.9139956781861605, 0.06111718696720658, 0.13057468700058972, 1.986912246099537, 0.5598173340123341, -0.009045465350779347, -0.4496553237796416, 0.26512277064576073, -0.055592856646757005, -0.11157739088595882, -0.06781410597170669, -0.6280770380122234, 0.3468519802560817, -0.21919202592100484, -1.8737292083754893, -0.6872128143667742, 0.03458070613546873, 0.12047206147654253, 1.044234664357416, -0.335195014490819, -0.04259703344636575, 0.9259006004625101, -0.4672520940250525]}, {"children_left": [1, 2, 3, 4, -1, -1, 7, -1, -1, 10, 11, -1, -1, 14, -1, -1, 17, 18, 19, -1, -1, 22, -1, -1, 25, 26, -1, -1, 29, -1, -1], "children_right": [16, 9, 6, 5, -1, -1, 8, -1, -1, 13, 12, -1, -1, 15, -1, -1, 24, 21, 20, -1, -1, 23, -1, -1, 28, 27, -1, -1, 30, -1, -1], "feature": [10, 16, 5, 14, -2, -2, 6, -2, -2, 10, 2, -2, -2, 9, -2, -2, 6, 3, 13, -2, -2, 0, -2, -2, 11, 9, -2, -2, 10, -2, -2], "threshold": [-0.04922324791550636, 0.8734920024871826, -0.08328375220298767, -0.6582913398742676, -2.0, -2.0, -0.06639456748962402, -2.0, -2.0, -0.04922770522534847, -0.07302505895495415, -2.0, -2.0, -0.20721155777573586, -2.0, -2.0, -0.06940367445349693, 0.4733612835407257, -0.2485191822052002, -2.0, -2.0, -0.08777421340346336, -2.0, -2.0, -0.06292063742876053, 0.9975590407848358, -2.0, -2.0, -0.04855063185095787, -2.0, -2.0], "value": [-0.00470755882113759, -0.08119859272445708, -0.05058595992863169, -0.0638612351430596, 0.9314580728483146, -0.4639140663778481, 0.44723686061241597, 1.6299140396145033, 2.036900811997869, -0.29548702229523505, -0.25290601583766326, -1.309748583752364, -1.6201724674374969, -0.3700037835959857, -1.453252038242837, -1.7018066695044582, 0.013658637586753572, -0.20534395133307487, -0.3080915657020505, 1.7635175626289235, -1.674772542746449, 0.22619602901662259, -1.234885865848663, 1.576436218989294, 0.021712481026520968, 0.07174476211384875, 0.15793777962146938, 0.9407155465106511, -0.02463895104348299, -0.2970513018463668, 0.6954755727603823]}, {"children_left": [1, 2, 3, 4, -1, -1, 7, -1, -1, 10, 11, -1, -1, 14, -1, -1, 17, 18, 19, -1, -1, 22, -1, -1, 25, 26, -1, -1, 29, -1, -1], "children_right": [16, 9, 6, 5, -1, -1, 8, -1, -1, 13, 12, -1, -1, 15, -1, -1, 24, 21, 20, -1, -1, 23, -1, -1, 28, 27, -1, -1, 30, -1, -1], "feature": [12, 6, 16, 0, -2, -2, 9, -2, -2, 14, 13, -2, -2, 16, -2, -2, 4, 9, 10, -2, -2, 11, -2, -2, 12, 15, -2, -2, 5, -2, -2], "threshold": [-0.07216823101043701, -0.066588394343853, 0.1286429464817047, -0.08263247460126877, -2.0, -2.0, 0.6405899524688721, -2.0, -2.0, -1.131921112537384, -0.3804236128926277, -2.0, -2.0, 0.49003787338733673, -2.0, -2.0, -0.36230865120887756, -0.8765285313129425, -0.048915715888142586, -2.0, -2.0, -0.06318988651037216, -2.0, -2.0, -0.07192179188132286, -0.07093144208192825, -2.0, -2.0, -0.08348504081368446, -2.0, -2.0], "value": [0.001294136446451899, -0.03034844726400139, -0.013088009200558205, -0.08298268047597702, -0.4932077493454801, 1.503354318347806, 0.02547456805484527, 0.2900122633165885, -0.22656216096261694, -0.15786959415063365, 0.18631770754121146, -1.399667243218535, 1.660215049682461, -0.2182533312895539, -0.6295564093938092, -1.8176716487336877, 0.05254235559709957, -0.0018840369415679015, 0.10730202169176736, 1.3513467900118654, 0.06269467586874314, -0.09133767533996306, 1.1030646904274648, -0.6970891084027288, 0.09447289270597085, 0.18155484728107585, -1.536751751981159, 0.9752708516013393, 0.02496711244877695, -0.8831054841136465, 0.7342390836547883]}, {"children_left": [1, 2, 3, 4, -1, -1, 7, -1, -1, -1, 11, 12, 13, -1, -1, 16, -1, -1, 19, 20, -1, -1, 23, -1, -1], "children_right": [10, 9, 6, 5, -1, -1, 8, -1, -1, -1, 18, 15, 14, -1, -1, 17, -1, -1, 22, 21, -1, -1, 24, -1, -1], "feature": [12, 13, 10, 12, -2, -2, 15, -2, -2, -2, 12, 10, 12, -2, -2, 4, -2, -2, 8, 8, -2, -2, 16, -2, -2], "threshold": [-0.07228368148207664, 0.9825569689273834, -0.04922967776656151, -0.07228627055883408, -2.0, -2.0, -0.07096801325678825, -2.0, -2.0, -2.0, -0.07228244468569756, -0.049228304997086525, -0.07228291779756546, -2.0, -2.0, -1.3835393786430359, -2.0, -2.0, 1.6372081637382507, 1.6241265535354614, -2.0, -2.0, -0.3155132383108139, -2.0, -2.0], "value": [0.008784474215898891, -0.21894638785289272, -0.2510890940129199, -0.20508435508915127, -1.1946738564874206, -1.2874425791064485, -0.38910331078422566, -1.8522541854099717, -1.4755417323944764, 1.4191178950554726, 0.013124636385371384, 0.5739410400148879, 0.7328810209252927, 3.6321692242268244, 3.862191008635389, 0.4679810527412847, 2.190395636815015, 1.7576218583107184, 0.00996332633109001, 0.002054094025392244, 0.019299502922017382, -2.1738256028143796, 0.11897891161129093, 0.27686287683630534, 1.511707453074754]}, {"children_left": [1, 2, 3, 4, -1, -1, 7, -1, -1, 10, 11, -1, -1, 14, -1, -1, 17, 18, -1, -1, 21, 22, -1, -1, 25, -1, -1], "children_right": [16, 9, 6, 5, -1, -1, 8, -1, -1, 13, 12, -1, -1, 15, -1, -1, 20, 19, -1, -1, 24, 23, -1, -1, 26, -1, -1], "feature": [12, 16, 1, 14, -2, -2, 12, -2, -2, 5, 1, -2, -2, 11, -2, -2, 15, 9, -2, -2, 11, 8, -2, -2, 16, -2, -2], "threshold": [-0.07112754508852959, 0.29427245259284973, -0.06570360064506531, -0.9424692392349243, -2.0, -2.0, -0.07227832078933716, -2.0, -2.0, -0.0839795395731926, -0.08041301369667053, -2.0, -2.0, -0.06328355148434639, -2.0, -2.0, -0.07056336477398872, 0.5513476878404617, -2.0, -2.0, 8.994357824325562, 0.7458442449569702, -2.0, -2.0, -1.8884861469268799, -2.0, -2.0], "value": [-0.009096844847826559, -0.02032579973350098, -0.06226462665752528, -0.042927266759850084, 0.6040353002721659, -0.30676425554130465, -0.1510045659139799, 2.079750761589321, -0.803381805156262, 0.020030429948107296, 0.1325740399694869, -0.018712695909058236, 1.204956607672607, -0.003764504742127244, 0.5515480137249894, -0.12239574864284011, 0.11223420015062953, 0.41268567906837816, 1.5061298476848701, 1.958191576257138, 0.10422216071282284, 0.11020054651097227, 1.1769146403214508, 0.8941413561091277, -0.11398892091963046, -1.759529498193248, 1.2557898299869523]}, {"children_left": [1, 2, 3, 4, -1, -1, 7, -1, -1, 10, 11, -1, -1, 14, -1, -1, 17, 18, 19, -1, -1, 22, -1, -1, 25, 26, -1, -1, 29, -1, -1], "children_right": [16, 9, 6, 5, -1, -1, 8, -1, -1, 13, 12, -1, -1, 15, -1, -1, 24, 21, 20, -1, -1, 23, -1, -1, 28, 27, -1, -1, 30, -1, -1], "feature": [10, 1, 12, 15, -2, -2, 2, -2, -2, 9, 14, -2, -2, 14, -2, -2, 15, 5, 4, -2, -2, 1, -2, -2, 12, 7, -2, -2, 6, -2, -2], "threshold": [-0.049068259075284004, -0.07687786594033241, -0.07180715352296829, -0.07098955661058426, -2.0, -2.0, -0.07162510231137276, -2.0, -2.0, 1.1760435104370117, -1.2266470789909363, -2.0, -2.0, -0.08993553929030895, -2.0, -2.0, -0.0701981857419014, -0.08381975069642067, -0.16778849810361862, -2.0, -2.0, -0.07578491792082787, -2.0, -2.0, -0.07213935628533363, -0.09456655755639076, -2.0, -2.0, -0.06213708408176899, -2.0, -2.0], "value": [-0.0017630589687153923, -0.0186590395026148, 0.00856583652207068, 0.01655534303470559, -1.2899925261149605, 0.11488909659434976, -0.2142993451461668, -1.636197347512362, 0.4816465601808208, -0.11764219802945125, -0.1571415789930252, 0.47819431272007495, -0.9404446827706688, 0.0913753595694614, 1.4562688885648027, -0.39748757014041586, 0.05482634951802904, 0.17884014806283904, -0.07090171632759831, -1.4678986956194593, 1.3372907758074237, 0.2428765235475666, 0.5950863750737198, 1.7950868575245291, 0.01684712371368096, -0.22730185142764497, -1.5027395730529536, 1.2784801535017905, 0.0477955853513138, 1.0066972891700634, -0.05542401298573429]}, {"children_left": [1, 2, 3, 4, -1, -1, 7, -1, -1, 10, 11, -1, -1, 14, -1, -1, 17, 18, 19, -1, -1, 22, -1, -1, 25, 26, -1, -1, 29, -1, -1], "children_right": [16, 9, 6, 5, -1, -1, 8, -1, -1, 13, 12, -1, -1, 15, -1, -1, 24, 21, 20, -1, -1, 23, -1, -1, 28, 27, -1, -1, 30, -1, -1], "feature": [8, 16, 2, 2, -2, -2, 2, -2, -2, 16, 8, -2, -2, 9, -2, -2, 1, 5, 12, -2, -2, 11, -2, -2, 2, 16, -2, -2, 15, -2, -2], "threshold": [1.0738067626953125, 0.35490381717681885, -0.07269026711583138, -0.07299692928791046, -2.0, -2.0, -0.07255323976278305, -2.0, -2.0, 0.38028937578201294, -0.5086140185594559, -2.0, -2.0, 1.7114971280097961, -2.0, -2.0, -0.07487894594669342, -0.08394890651106834, -0.07225905731320381, -2.0, -2.0, -0.06278500333428383, -2.0, -2.0, -0.07303932309150696, 0.03497415781021118, -2.0, -2.0, -0.07022687792778015, -2.0, -2.0], "value": [-0.0017532283559745288, -0.014936894724374554, -0.045963631427851113, -0.09081475273044788, -0.1940811822870378, -0.8034577226844332, 0.020191772493479032, 0.9789523046000695, -0.07919227454846924, 0.0178273392344967, 0.42423757932175715, 2.2773660799378406, 1.4758224678311493, 0.008968260431504647, -0.01603985058816416, 0.8526762038209384, 0.07190334244139086, 0.13686727702885368, -0.43612604249699816, -2.1618701645328597, -1.5033401667672528, 0.15278375812679398, 1.2303771494858458, 0.1842589177857035, -0.003211206925362989, -0.29546153781978685, -1.2900046061290933, -1.7863977158377975, 0.03853884034526899, 2.1055097975632586, -0.020044034042367972]}, {"children_left": [1, 2, 3, 4, -1, -1, 7, -1, -1, 10, 11, -1, -1, 14, -1, -1, 17, 18, 19, -1, -1, 22, -1, -1, 25, 26, -1, -1, 29, -1, -1], "children_right": [16, 9, 6, 5, -1, -1, 8, -1, -1, 13, 12, -1, -1, 15, -1, -1, 24, 21, 20, -1, -1, 23, -1, -1, 28, 27, -1, -1, 30, -1, -1], "feature": [13, 2, 12, 12, -2, -2, 9, -2, -2, 16, 16, -2, -2, 8, -2, -2, 6, 3, 16, -2, -2, 16, -2, -2, 8, 10, -2, -2, 15, -2, -2], "threshold": [0.05515130050480366, -0.0716058500111103, -0.07183433696627617, -0.07212195172905922, -2.0, -2.0, 0.23899976909160614, -2.0, -2.0, 1.0360622107982635, -0.33709102869033813, -2.0, -2.0, -0.2941359393298626, -2.0, -2.0, -0.0694035068154335, 0.4590562880039215, 0.3509015738964081, -2.0, -2.0, 0.06833938509225845, -2.0, -2.0, -0.4815668761730194, -0.049223704263567924, -2.0, -2.0, -0.07095484808087349, -2.0, -2.0], "value": [-0.004066404719561779, -0.03345929900664755, -0.05238965480925023, -0.03455215051446963, -0.3223132885428991, 0.46959199858321476, -0.24020808238370564, -2.0541552875043245, -0.7019407471289195, 0.07729740956977431, 0.10533564743119597, 0.0007897308915980959, 1.2801256500898432, -0.5208516648072218, -2.2286718303184325, -1.8554359728292333, 0.025914347453265693, -0.25139098577598135, -0.34068574158295356, -1.3342089934704433, -1.7565219760212891, 0.0016108223437734058, -1.3546650359224561, 1.3551714324548678, 0.0408511686810706, 0.13736482842398182, -1.5806648032241752, 0.7590193021580156, 0.00817569767093137, 1.1995705482229175, -0.018665208618569913]}, {"children_left": [1, 2, 3, 4, -1, -1, 7, -1, -1, 10, 11, -1, -1, 14, -1, -1, 17, 18, 19, -1, -1, 22, -1, -1, 25, 26, -1, -1, 29, -1, -1], "children_right": [16, 9, 6, 5, -1, -1, 8, -1, -1, 13, 12, -1, -1, 15, -1, -1, 24, 21, 20, -1, -1, 23, -1, -1, 28, 27, -1, -1, 30, -1, -1], "feature": [16, 16, 0, 8, -2, -2, 15, -2, -2, 9, 13, -2, -2, 0, -2, -2, 16, 6, 8, -2, -2, 16, -2, -2, 13, 3, -2, -2, 3, -2, -2], "threshold": [0.35604967176914215, 0.3390079140663147, -0.08280207589268684, 0.2959336042404175, -2.0, -2.0, -0.06807709112763405, -2.0, -2.0, 1.0421801209449768, 1.0929937660694122, -2.0, -2.0, -0.08725804090499878, -2.0, -2.0, 0.392668679356575, -0.06687930226325989, -0.47024112939834595, -2.0, -2.0, 0.3715910315513611, -2.0, -2.0, 0.017555298749357462, -0.6199634671211243, -2.0, -2.0, 1.3455896973609924, -2.0, -2.0], "value": [0.0011444947781969676, -0.025995803170266618, -0.020473550788042416, -0.03941412807009289, -0.01585347965277747, -0.6351830771579323, 0.07048526801994413, 1.5217136538502711, 0.09325048734448767, -0.4196535087031047, -0.3718021019918338, -1.4509555468339954, -1.88883419964165, -0.5392820254812818, -2.4734758520567754, -1.9336877498062361, 0.035221394931851016, 0.34298598599044167, 0.4336895731214164, 2.1143772909065865, 1.4816323755635228, -0.06518015609894487, 1.104358023990785, -1.2900843110369524, 0.026585143652145656, -0.02085054543975752, 0.34139310069662243, -0.3762459403828662, 0.07966183360903194, 0.4900940058700656, -0.9450264178295305]}, {"children_left": [1, 2, 3, 4, -1, -1, 7, -1, -1, 10, 11, -1, -1, -1, 15, 16, 17, -1, -1, -1, 21, 22, -1, -1, 25, -1, -1], "children_right": [14, 9, 6, 5, -1, -1, 8, -1, -1, 13, 12, -1, -1, -1, 20, 19, 18, -1, -1, -1, 24, 23, -1, -1, 26, -1, -1], "feature": [12, 10, 12, 12, -2, -2, 4, -2, -2, 2, 2, -2, -2, -2, 12, 3, 13, -2, -2, -2, 1, 11, -2, -2, 6, -2, -2], "threshold": [-0.07228347286581993, -0.04922967776656151, -0.07228386402130127, -0.07228627055883408, -2.0, -2.0, 1.0965924113988876, -2.0, -2.0, -0.07312679663300514, -0.07327716425061226, -2.0, -2.0, -2.0, -0.07228140532970428, 0.9103685915470123, -0.17556334286928177, -2.0, -2.0, -2.0, -0.08106479421257973, -0.06335568428039551, -2.0, -2.0, -0.06940874829888344, -2.0, -2.0], "value": [-0.0001829214218911297, -0.21821229726220995, -0.17941537980692868, -0.16324201650324566, -1.1553906547302446, -1.2210187402852906, -0.276455559629027, -1.4205952125123025, -1.3456078050323308, -0.3540015083556943, -0.39813563020214726, -1.8278543263188738, -1.5932465867710461, -1.2846851217740232, 0.004221712433468848, 0.38826857960405786, 0.4779677414747749, 2.3953200301429867, 1.5739035210581824, -1.315141512962605, 0.0007422391182200093, 0.09307548464816467, -0.7432357728530613, 0.843821860973616, -0.00782829728616841, -1.0062893238706072, -0.0055715053064864985]}, {"children_left": [1, 2, 3, 4, -1, -1, 7, -1, -1, 10, 11, -1, -1, 14, -1, -1, 17, 18, 19, -1, -1, 22, -1, -1, 25, 26, -1, -1, 29, -1, -1], "children_right": [16, 9, 6, 5, -1, -1, 8, -1, -1, 13, 12, -1, -1, 15, -1, -1, 24, 21, 20, -1, -1, 23, -1, -1, 28, 27, -1, -1, 30, -1, -1], "feature": [2, 1, 2, 16, -2, -2, 12, -2, -2, 13, 15, -2, -2, 16, -2, -2, 0, 14, 13, -2, -2, 9, -2, -2, 12, 13, -2, -2, 15, -2, -2], "threshold": [-0.07308647036552429, -0.0812966600060463, -0.07328927516937256, 0.6731550097465515, -2.0, -2.0, -0.07221467420458794, -2.0, -2.0, 1.0739038586616516, -0.07093019410967827, -2.0, -2.0, -0.2091151848435402, -2.0, -2.0, -0.08783840388059616, -1.2740100622177124, -0.7273898646235466, -2.0, -2.0, 0.10513636842370033, -2.0, -2.0, -0.07226990163326263, -0.2212156355381012, -2.0, -2.0, -0.07094896584749222, -2.0, -2.0], "value": [0.0010356350224646632, -0.04917139833025087, 0.24044506628549253, -0.16747094991242004, -1.185292029280523, -1.23422450366931, 0.415266216084598, 1.662461381340867, 2.1769709871292995, -0.06089676127015953, -0.08076297513051248, -0.08895856619757384, -0.8277628548596176, 0.11551521780977471, -1.3901477995303775, 0.8474716479679788, 0.020825830684501292, -0.14753601412540432, 0.5880919524734664, 2.282599003414324, 2.5925609276248567, -0.1862532755253449, 2.130419773782217, -1.1616889812563478, 0.03182987282893956, 0.41190763639965783, 2.3506266709120136, 1.6551287238933876, 0.018989407843442337, 1.576940453435241, 0.07161494866065894]}, {"children_left": [1, 2, 3, 4, -1, -1, 7, -1, -1, 10, 11, -1, -1, 14, -1, -1, 17, 18, 19, -1, -1, 22, -1, -1, 25, 26, -1, -1, 29, -1, -1], "children_right": [16, 9, 6, 5, -1, -1, 8, -1, -1, 13, 12, -1, -1, 15, -1, -1, 24, 21, 20, -1, -1, 23, -1, -1, 28, 27, -1, -1, 30, -1, -1], "feature": [4, 5, 12, 12, -2, -2, 2, -2, -2, 9, 12, -2, -2, 16, -2, -2, 12, 3, 12, -2, -2, 3, -2, -2, 12, 8, -2, -2, 9, -2, -2], "threshold": [-0.45956870913505554, -0.08399869501590729, -0.0722544938325882, -0.07228413969278336, -2.0, -2.0, -0.07307042181491852, -2.0, -2.0, -0.6980440318584442, -0.07227646932005882, -2.0, -2.0, -2.157587766647339, -2.0, -2.0, -0.07218461111187935, 0.5179416239261627, -0.07222242280840874, -2.0, -2.0, 1.007617712020874, -2.0, -2.0, -0.07205306738615036, -0.203091099858284, -2.0, -2.0, 0.37286315858364105, -2.0, -2.0], "value": [0.005503438147479266, -0.03090423009064749, 0.2592341419162808, 0.41422991926983255, -1.2481465166873973, 1.9218712341201885, -0.10242267190867323, -1.304891256876662, 1.91230541592153, -0.04838244527178777, 0.008934662917269942, 1.8036274928696776, -0.01639926896295281, -0.10780938566412371, 3.151342444857458, -0.5745863526207913, 0.02851151574141211, -0.014258500163944102, -0.048278007531464884, -0.07858297666741487, -0.9813269009821683, 0.1166650584928783, 1.2168671562759608, -0.08511836073362719, 0.08626006042374958, 0.15885137765883806, 1.1712901256159738, 0.2205759880132278, 0.03418368066814268, 0.811364272639675, -0.263971438186225]}, {"children_left": [1, 2, 3, 4, -1, -1, 7, -1, -1, 10, 11, -1, -1, -1, 15, 16, -1, 18, -1, -1, 21, 22, -1, -1, 25, -1, -1], "children_right": [14, 9, 6, 5, -1, -1, 8, -1, -1, 13, 12, -1, -1, -1, 20, 17, -1, 19, -1, -1, 24, 23, -1, -1, 26, -1, -1], "feature": [2, 7, 8, 13, -2, -2, 13, -2, -2, 5, 11, -2, -2, -2, 12, 5, -2, 6, -2, -2, 10, 5, -2, -2, 11, -2, -2], "threshold": [-0.07300886139273643, -0.09624508023262024, -1.4519267678260803, -1.0978354215621948, -2.0, -2.0, 1.0739038586616516, -2.0, -2.0, -0.08313993364572525, -0.06327718496322632, -2.0, -2.0, -2.0, -0.07227256894111633, -0.08401062339544296, -2.0, -0.06928115710616112, -2.0, -2.0, -0.04922945983707905, -0.08334089443087578, -2.0, -2.0, -0.0632428489625454, -2.0, -2.0], "value": [0.007415391360484556, -0.027114934436801446, -0.02093773705320445, 0.5420664941458605, 2.7215976953364174, 1.5658050512325679, -0.026087165997098354, -0.2232061017865435, 0.5564921853297043, -0.3678903234319026, -0.3082806723167927, -1.2649555495983615, -1.6150427640137426, -2.993461492886087, 0.027759307083710758, 0.33717435726826434, -1.3241624175961377, 0.38567268971269025, 2.400768709584887, 1.564756899130164, 0.02056360824220954, -0.17980110360824497, -1.3158219629935146, 1.9753404325376487, 0.028384535656446587, 0.6721526456544281, 0.05339207921245797]}, {"children_left": [1, 2, 3, 4, -1, -1, 7, -1, -1, 10, -1, 12, -1, -1, 15, 16, 17, -1, -1, 20, -1, -1, 23, 24, -1, -1, 27, -1, -1], "children_right": [14, 9, 6, 5, -1, -1, 8, -1, -1, 11, -1, 13, -1, -1, 22, 19, 18, -1, -1, 21, -1, -1, 26, 25, -1, -1, 28, -1, -1], "feature": [3, 3, 9, 13, -2, -2, 11, -2, -2, 8, -2, 13, -2, -2, 2, 14, 8, -2, -2, 11, -2, -2, 11, 2, -2, -2, 15, -2, -2], "threshold": [0.13743364810943604, 0.07523300871253014, 0.6405899524688721, -0.17107147723436356, -2.0, -2.0, -0.06293992325663567, -2.0, -2.0, -1.307549774646759, -2.0, 0.4604518711566925, -2.0, -2.0, -0.07320324704051018, 0.38369429111480713, 0.9908336699008942, -2.0, -2.0, -0.06339559331536293, -2.0, -2.0, -0.06304357200860977, -0.07298276200890541, -2.0, -2.0, -0.06974277272820473, -2.0, -2.0], "value": [-0.0027529834679553135, -0.029817828407310544, -0.018558639384195365, 0.024682897250030943, -0.16045143190093655, 0.46493479321113945, -0.08067719201102806, -0.19483222908546735, -1.0291370265548434, -0.22283249737499916, 2.915333887604896, -0.2554183719437344, -1.6249690309562443, -0.6652821691196584, 0.031533653013821376, -0.1184976342666651, -0.15636875623362334, -1.1729944687750857, 0.6251815331784929, 0.27914914638639693, -1.2455255701145933, 1.9746410453630787, 0.050974326858616796, 0.12530978530652187, 0.323190835940845, 1.104336206758405, -0.0009537924399196709, -0.28420490924835273, 0.6469791403042002]}, {"children_left": [1, 2, 3, 4, -1, -1, 7, -1, -1, 10, 11, -1, -1, 14, -1, -1, 17, 18, 19, -1, -1, 22, -1, -1, 25, 26, -1, -1, 29, -1, -1], "children_right": [16, 9, 6, 5, -1, -1, 8, -1, -1, 13, 12, -1, -1, 15, -1, -1, 24, 21, 20, -1, -1, 23, -1, -1, 28, 27, -1, -1, 30, -1, -1], "feature": [16, 5, 6, 2, -2, -2, 13, -2, -2, 4, 9, -2, -2, 15, -2, -2, 3, 6, 6, -2, -2, 2, -2, -2, 16, 10, -2, -2, 8, -2, -2], "threshold": [0.35490381717681885, -0.07718997076153755, -0.06285605952143669, -0.07189392670989037, -2.0, -2.0, 1.1563284397125244, -2.0, -2.0, -1.18901926279068, -0.38569607958197594, -2.0, -2.0, -0.06643691658973694, -2.0, -2.0, 0.7615194618701935, -0.06891946867108345, -0.06940390542149544, -2.0, -2.0, -0.0730636976659298, -2.0, -2.0, 0.949427455663681, -0.0492029320448637, -2.0, -2.0, -0.8829827010631561, -2.0, -2.0], "value": [0.0005045300371069421, -0.027273782593241033, -0.04478442498282716, -0.02480613447126021, -0.19857393216620547, 0.545921574559338, -0.16939477936005834, -0.6811540596067467, -1.7942087550851706, 0.08432389353143474, -0.0932715446868874, 0.12647896859099791, -2.202040527312961, 0.09864610629097688, 1.3221337730019704, 1.1110331053852562, 0.03357076242118383, 0.012003223669157122, 0.062055817243621414, -0.5696335373517551, 0.4529148085795657, -0.039880562353153425, -1.0417548774907466, 0.057809642028146306, 0.12250357653447912, 0.17315686270365557, 1.5905823497925928, 0.5827793743151438, -0.11990857870372267, 1.5788193921281126, -1.0582285327076564]}, {"children_left": [1, 2, 3, 4, -1, -1, 7, -1, -1, 10, 11, -1, -1, 14, -1, -1, 17, 18, 19, -1, -1, 22, -1, -1, 25, 26, -1, -1, 29, -1, -1], "children_right": [16, 9, 6, 5, -1, -1, 8, -1, -1, 13, 12, -1, -1, 15, -1, -1, 24, 21, 20, -1, -1, 23, -1, -1, 28, 27, -1, -1, 30, -1, -1], "feature": [16, 16, 13, 2, -2, -2, 5, -2, -2, 9, 10, -2, -2, 10, -2, -2, 4, 12, 2, -2, -2, 6, -2, -2, 10, 9, -2, -2, 9, -2, -2], "threshold": [0.9828832447528839, 0.9127545952796936, 0.5749980211257935, -0.07173315435647964, -2.0, -2.0, -0.0832466185092926, -2.0, -2.0, -0.11796930059790611, -0.049181271344423294, -2.0, -2.0, -0.049228811636567116, -2.0, -2.0, 0.4157719314098358, -0.07215522602200508, -0.072671789675951, -2.0, -2.0, -0.06613407284021378, -2.0, -2.0, -0.04921850375831127, 0.19437863305211067, -2.0, -2.0, -1.0103919208049774, -2.0, -2.0], "value": [-0.00850203378269187, -0.0015336126715775056, -0.009153478397893445, -0.028891505743683155, -0.23960456029412663, 0.42288298825157866, 0.0345965585929712, 0.4386830525713637, -0.3179791937430399, 0.21313639761808195, 0.036050508969163814, -0.6647639367577185, 1.448326514553235, 0.32135555179242087, -1.2788704355824505, 1.7828617615651192, -0.10207797441765631, -0.16977082400750862, -0.2524948781244146, -1.3206510351929752, 1.249359476655401, -0.009492969156003318, 0.6829528461258075, -1.857025414736084, 0.09676977125253486, -0.31091583947739276, -1.2274734264277898, -1.615083358589532, 0.34138113769049144, 1.2454389531098946, 1.6424130508494081]}, {"children_left": [1, 2, 3, 4, -1, -1, 7, -1, -1, 10, 11, -1, -1, 14, -1, -1, 17, 18, 19, -1, -1, 22, -1, -1, 25, 26, -1, -1, 29, -1, -1], "children_right": [16, 9, 6, 5, -1, -1, 8, -1, -1, 13, 12, -1, -1, 15, -1, -1, 24, 21, 20, -1, -1, 23, -1, -1, 28, 27, -1, -1, 30, -1, -1], "feature": [2, 4, 1, 1, -2, -2, 12, -2, -2, 11, 2, -2, -2, 16, -2, -2, 6, 2, 14, -2, -2, 15, -2, -2, 7, 16, -2, -2, 2, -2, -2], "threshold": [-0.07319049537181854, 0.4157719314098358, -0.0800633653998375, -0.08135327696800232, -2.0, -2.0, -0.0722561702132225, -2.0, -2.0, -0.0633600689470768, -0.07320575788617134, -2.0, -2.0, -0.2142789587378502, -2.0, -2.0, -0.06941521167755127, -0.07313753291964531, -0.3267504572868347, -2.0, -2.0, -0.07065488398075104, -2.0, -2.0, -0.10094894096255302, -1.2378044724464417, -2.0, -2.0, -0.07312672585248947, -2.0, -2.0], "value": [0.003701367246798452, -0.07027517081225275, -0.11156668221645671, -0.17941453269724622, 1.1651375128700259, -1.1853662739103121, -0.009794906495272475, 0.7537036043830292, -1.1155893029269355, 0.08232389307284903, -0.2076015306938041, -1.165651771289218, -1.6596763590937458, 0.2091662659707597, -1.1321534690685633, 1.3438593265145184, 0.013675731928917743, -0.14552079645086258, 0.0446370395760228, 2.4938870961767123, -0.7787608279701538, -0.21466910046063906, -1.4044448223931354, 1.2170658421763283, 0.01987014937560179, 0.08550783774644412, -1.2465417734908957, 0.5733188036402869, 0.0042772474833310484, -0.9048786674754872, 0.06799768956264728]}, {"children_left": [1, 2, 3, 4, -1, -1, -1, 8, 9, -1, -1, 12, -1, -1, 15, 16, 17, -1, -1, 20, -1, -1, 23, 24, -1, -1, 27, -1, -1], "children_right": [14, 7, 6, 5, -1, -1, -1, 11, 10, -1, -1, 13, -1, -1, 22, 19, 18, -1, -1, 21, -1, -1, 26, 25, -1, -1, 28, -1, -1], "feature": [2, 10, 13, 6, -2, -2, -2, 11, 13, -2, -2, 12, -2, -2, 8, 16, 10, -2, -2, 9, -2, -2, 8, 7, -2, -2, 12, -2, -2], "threshold": [-0.07320231199264526, -0.049234651029109955, -0.9351881444454193, -0.06945843622088432, -2.0, -2.0, -2.0, -0.06316449493169785, 0.41547781229019165, -2.0, -2.0, -0.07225533202290535, -2.0, -2.0, -1.4320550560951233, -1.8990287780761719, -0.04920007660984993, -2.0, -2.0, 2.0684661865234375, -2.0, -2.0, -0.5577224791049957, -0.09798924624919891, -2.0, -2.0, -0.07213879749178886, -2.0, -2.0], "value": [0.00577541535463286, -0.06738784394778548, 0.3999343181005582, 0.49799367872028216, 1.6294697314360946, 2.3611161784003487, -1.0993390042822375, -0.0985426547510084, -0.17134775119417298, -0.6942252711455502, -1.4256851011843772, 0.01586535394539309, 1.0514398894801613, -0.9320324547715868, 0.014414619405102913, -0.134956764646951, 0.23996647972684498, 2.1946659445065935, -0.48347213368647435, -0.18333395746937628, -1.154372148003887, 1.3240142601203517, 0.021134411746776296, 0.06370107494655101, 0.5490292025200082, -0.1214147349414041, -0.00010791150706116776, -0.16279714137055634, 0.33203940775236385]}, {"children_left": [1, 2, 3, 4, -1, -1, 7, -1, -1, 10, 11, -1, -1, 14, -1, -1, 17, 18, 19, -1, -1, 22, -1, -1, 25, 26, -1, -1, 29, -1, -1], "children_right": [16, 9, 6, 5, -1, -1, 8, -1, -1, 13, 12, -1, -1, 15, -1, -1, 24, 21, 20, -1, -1, 23, -1, -1, 28, 27, -1, -1, 30, -1, -1], "feature": [8, 9, 12, 5, -2, -2, 4, -2, -2, 13, 14, -2, -2, 4, -2, -2, 7, 5, 5, -2, -2, 16, -2, -2, 12, 12, -2, -2, 15, -2, -2], "threshold": [1.0738067626953125, 1.4437703490257263, -0.07218440622091293, -0.08394291251897812, -2.0, -2.0, -0.36230865120887756, -2.0, -2.0, 0.8894193768501282, -0.7530173063278198, -2.0, -2.0, 1.7774129509925842, -2.0, -2.0, -0.1012369804084301, -0.08394890651106834, -0.08396178856492043, -2.0, -2.0, -0.06165037384198513, -2.0, -2.0, -0.07215717807412148, -0.07216725125908852, -2.0, -2.0, -0.07005199044942856, -2.0, -2.0], "value": [-0.005505498167481294, -0.014982784714835629, -0.02422793451473071, -0.045894775269995275, -0.0027123760848213547, -0.42590109413846716, 0.008588630862768513, -0.30210747065921634, 0.3530222739832238, 0.06365805741019777, 0.09298857543748147, 1.8787735335396196, 0.3703800054412911, -0.3821658166045138, -2.1074201589079, 1.1275763539165413, 0.04699457838980525, 0.27278867191562206, -0.33227985727727277, -1.291454693151919, -1.7821510514972185, 0.348422238064734, 2.096454622564216, 1.3824002028244162, 0.01340537439422922, -0.07155148816744647, -0.24301762273554808, -2.4332117085062404, 0.08187806959319166, 1.5323968164676398, 0.5406722293525639]}, {"children_left": [1, 2, 3, 4, -1, -1, 7, -1, -1, 10, 11, -1, -1, -1, 15, 16, 17, -1, -1, 20, -1, -1, 23, 24, -1, -1, 27, -1, -1], "children_right": [14, 9, 6, 5, -1, -1, 8, -1, -1, 13, 12, -1, -1, -1, 22, 19, 18, -1, -1, 21, -1, -1, 26, 25, -1, -1, 28, -1, -1], "feature": [2, 2, 8, 0, -2, -2, 15, -2, -2, 16, 15, -2, -2, -2, 0, 4, 1, -2, -2, 14, -2, -2, 15, 10, -2, -2, 14, -2, -2], "threshold": [-0.07173315435647964, -0.07180283591151237, 2.0414141416549683, -0.08687310293316841, -2.0, -2.0, -0.06835350766777992, -2.0, -2.0, 0.658578023314476, -0.06970541924238205, -2.0, -2.0, -2.0, -0.08709187433123589, 1.2911125421524048, -0.0793229229748249, -2.0, -2.0, 2.4676655530929565, -2.0, -2.0, -0.07045253738760948, -0.04918897710740566, -2.0, -2.0, -1.2740100622177124, -2.0, -2.0], "value": [-0.0033575201930396846, -0.015244370741128065, -0.013489857846298125, -0.016712324754436007, -0.01436770498015417, -0.4602740897499785, 0.20300132807314705, 1.3974355681928594, 1.1264702831856528, -0.45387259444861144, -0.486532803236669, -1.861369432643986, -2.042085214744146, -1.6354625238259661, 0.054019393029463826, 0.17769425299605549, 0.13379860017101197, 1.1330770427616907, 1.2175541988967826, 0.2252478768898525, 1.3466672045806318, 1.2042893049099204, 0.030417320516755504, -0.2715750821256479, 1.2135361338392978, -1.7832228807139363, 0.05269544858053936, -0.7836389828397125, 0.6534039954080613]}, {"children_left": [1, 2, 3, 4, -1, -1, 7, -1, -1, 10, 11, -1, -1, 14, -1, -1, 17, 18, 19, -1, -1, 22, -1, -1, 25, 26, -1, -1, 29, -1, -1], "children_right": [16, 9, 6, 5, -1, -1, 8, -1, -1, 13, 12, -1, -1, 15, -1, -1, 24, 21, 20, -1, -1, 23, -1, -1, 28, 27, -1, -1, 30, -1, -1], "feature": [14, 14, 9, 1, -2, -2, 6, -2, -2, 14, 11, -2, -2, 12, -2, -2, 2, 16, 5, -2, -2, 4, -2, -2, 2, 1, -2, -2, 14, -2, -2], "threshold": [1.5204059481620789, -1.6055509448051453, -1.2334975898265839, -0.027693616109900177, -2.0, -2.0, -0.06706331297755241, -2.0, -2.0, -1.4160990118980408, 3.092474639415741, -2.0, -2.0, -0.07212195172905922, -2.0, -2.0, -0.07155447080731392, 0.8013700544834137, -0.08384585753083229, -2.0, -2.0, -0.5568287670612335, -2.0, -2.0, -0.07088363170623779, -0.08009416610002518, -2.0, -2.0, 1.99403578042984, -2.0, -2.0], "value": [0.0014813428094695672, 0.008718635268069725, -0.177406309425692, -0.3505382041623315, -1.344430140505315, -1.8436377018265393, -0.047557388373212474, -1.339064581156433, 1.4667217816262486, 0.011865675395742027, 0.22958660103649395, 1.520809120146747, -2.444855739506247, 0.00866389707749568, -0.043874606507666405, 0.3440318646961738, -0.08947089972995328, -0.13811407242712748, -0.18890101194581865, -0.7714168372205004, -1.4739224682194054, 0.08534846145511368, -1.363298254253757, 1.54176457789811, 0.11258535608907802, 0.17212256349826457, 1.1605418488579997, 1.233328494777421, 0.09472419386632205, 1.2138880270473384, 1.0981726570448271]}, {"children_left": [1, 2, 3, 4, -1, -1, 7, -1, -1, 10, 11, -1, -1, 14, -1, -1, 17, 18, -1, 20, -1, -1, 23, 24, -1, -1, 27, -1, -1], "children_right": [16, 9, 6, 5, -1, -1, 8, -1, -1, 13, 12, -1, -1, 15, -1, -1, 22, 19, -1, 21, -1, -1, 26, 25, -1, -1, 28, -1, -1], "feature": [13, 4, 5, 15, -2, -2, 1, -2, -2, 9, 10, -2, -2, 9, -2, -2, 6, 13, -2, 3, -2, -2, 3, 10, -2, -2, 9, -2, -2], "threshold": [-0.18064486235380173, -0.45956870913505554, -0.08400920405983925, -0.07097304612398148, -2.0, -2.0, -0.06237614341080189, -2.0, -2.0, -0.965770810842514, -0.04920541122555733, -2.0, -2.0, 0.37286315858364105, -2.0, -2.0, -0.0694035068154335, -0.1444787159562111, -2.0, 0.4590562880039215, -2.0, -2.0, 0.0032006562687456608, -0.049216343089938164, -2.0, -2.0, 0.9083167612552643, -2.0, -2.0], "value": [-0.0020290118489701132, -0.02835192711467859, -0.08249564811248286, 0.4904693299713869, 1.9000174952406035, 2.0294250524409736, -0.09173701872673877, -0.6911318247731594, 0.16633270936576686, -0.0013870700169579136, -0.20916762107949186, -0.7552478547860259, -2.3834441620176228, 0.010784175651977125, 0.5710090234089358, -0.2412954408658713, 0.016794355859904447, -0.14145178267896305, 2.0052145877865333, -0.16440721266017713, -1.3818631303741251, 0.3810383336006789, 0.02595431198291276, 0.07984441993481037, 1.2123335899025005, 0.20624624559304816, -0.00172338696519178, -0.11947334760404614, 0.9344972009710513]}, {"children_left": [1, 2, 3, 4, -1, -1, 7, -1, -1, 10, 11, -1, -1, 14, -1, -1, 17, 18, 19, -1, -1, 22, -1, -1, 25, 26, -1, -1, 29, -1, -1], "children_right": [16, 9, 6, 5, -1, -1, 8, -1, -1, 13, 12, -1, -1, 15, -1, -1, 24, 21, 20, -1, -1, 23, -1, -1, 28, 27, -1, -1, 30, -1, -1], "feature": [1, 1, 11, 12, -2, -2, 11, -2, -2, 10, 3, -2, -2, 16, -2, -2, 10, 12, 4, -2, -2, 16, -2, -2, 15, 5, -2, -2, 12, -2, -2], "threshold": [-0.07950771227478981, -0.08006250858306885, -0.06293850392103195, -0.07227351889014244, -2.0, -2.0, -0.0626700185239315, -2.0, -2.0, -0.04922571778297424, -1.8539324402809143, -2.0, -2.0, 0.2595665082335472, -2.0, -2.0, -0.04903534613549709, -0.0722707100212574, -0.6540888547897339, -2.0, -2.0, -1.421981930732727, -2.0, -2.0, -0.07019231095910072, -0.08369787409901619, -2.0, -2.0, -0.07196202129125595, -2.0, -2.0], "value": [-0.0070240155122418095, 0.016635116774447005, -0.01017085534360922, 0.01428807482506714, -0.7739549371710213, 0.2346254248479378, -0.16970978621656627, -1.6503613776270398, -0.10021771936390757, 0.1303886651215831, 0.41874333937583935, -1.1512885297155413, 2.0227773151112642, 0.0830468529305858, -0.4745998954026484, 0.8333040553096753, -0.026377185722753306, -0.04958822636728959, 0.1072517604251824, 1.3184316121984665, -0.15548280690074576, -0.06339803652511729, 0.6279417122118203, -0.38176899016872273, 0.025772295205880258, 0.2104128421174093, 0.0964203053658788, 1.6395202637046713, -0.0050011292793745886, -0.8226629302060062, 0.35222034618543646]}, {"children_left": [1, 2, 3, -1, -1, 6, -1, 8, -1, -1, 11, 12, 13, -1, -1, 16, -1, -1, 19, 20, -1, -1, 23, -1, -1], "children_right": [10, 5, 4, -1, -1, 7, -1, 9, -1, -1, 18, 15, 14, -1, -1, 17, -1, -1, 22, 21, -1, -1, 24, -1, -1], "feature": [1, 3, 8, -2, -2, 12, -2, 1, -2, -2, 2, 2, 8, -2, -2, 14, -2, -2, 15, 4, -2, -2, 1, -2, -2], "threshold": [-0.0812966600060463, -1.3964393138885498, -1.3852293491363525, -2.0, -2.0, -0.07228312268853188, -2.0, -0.08130146190524101, -2.0, -2.0, -0.07312963157892227, -0.07313461974263191, -1.450693964958191, -2.0, -2.0, 0.8099611718207598, -2.0, -2.0, -0.07096860557794571, -0.11915847659111023, -2.0, -2.0, -0.08109351620078087, -2.0, -2.0], "value": [0.0022444777615173617, 0.20860627233058102, -0.29428640064480194, -1.2560738311918394, -1.6252349486784259, 0.3000413037806507, -1.0862619191596226, 0.337986605402789, 1.4440722589108015, 2.0497858962046784, -0.0007496107757569919, -0.05668686645916553, -0.04178028058480929, 2.4643637001436027, -0.2858277938308512, -0.3864950789292974, -1.8649036646717454, -1.265233143655676, 0.013805090070136911, -0.14881806123065733, 1.803496088126043, -1.1446288369118505, 0.019977647637758313, 1.1141516571959864, 0.06737527924307926]}, {"children_left": [1, 2, 3, 4, -1, -1, 7, -1, -1, 10, -1, 12, -1, -1, 15, 16, 17, -1, -1, 20, -1, -1, 23, 24, -1, -1, 27, -1, -1], "children_right": [14, 9, 6, 5, -1, -1, 8, -1, -1, 11, -1, 13, -1, -1, 22, 19, 18, -1, -1, 21, -1, -1, 26, 25, -1, -1, 28, -1, -1], "feature": [14, 12, 6, 13, -2, -2, 0, -2, -2, 9, -2, 12, -2, -2, 12, 11, 14, -2, -2, 0, -2, -2, 2, 15, -2, -2, 15, -2, -2], "threshold": [-1.510824978351593, -0.06960147991776466, -0.026917881215922534, -0.7569984197616577, -2.0, -2.0, -0.08176332712173462, -2.0, -2.0, -1.8581934571266174, -2.0, -0.05116412416100502, -2.0, -2.0, -0.0711316391825676, -0.038820866495370865, -1.2266470789909363, -2.0, -2.0, -0.08352512866258621, -2.0, -2.0, -0.07244109734892845, -0.07058669626712799, -2.0, -2.0, -0.07060212641954422, -2.0, -2.0], "value": [0.003460008431932636, -0.17900020930195795, -0.12487163603113575, -0.2103852282798956, -1.2349071094795996, -1.3947972965444757, 0.18867820221431678, 1.3912527037817606, 1.1662572701002543, -0.4316002178991281, -2.199754247244266, -0.37469844463906504, -1.6531716175006321, -1.5486942743259395, 0.006937389263183928, 9.822448838595416e-05, 0.002190232094563947, 0.7549031668417091, -0.01426280766212624, -0.4251023214672883, -1.9225772939515609, -1.3664963551708855, 0.08143869087664977, 0.2569333309551306, 1.78284759790845, 1.2604467855334385, 0.0715516689003973, -1.3541805219576204, 1.1058566899835631]}, {"children_left": [1, 2, 3, 4, -1, -1, 7, -1, -1, 10, -1, 12, -1, -1, 15, 16, -1, -1, 19, 20, -1, -1, 23, -1, -1], "children_right": [14, 9, 6, 5, -1, -1, 8, -1, -1, 11, -1, 13, -1, -1, 18, 17, -1, -1, 22, 21, -1, -1, 24, -1, -1], "feature": [10, 5, 8, 1, -2, -2, 12, -2, -2, 16, -2, 14, -2, -2, 14, 3, -2, -2, 15, 16, -2, -2, 2, -2, -2], "threshold": [-0.049229562282562256, -0.08373913913965225, -1.4796473979949951, -0.08130069077014923, -2.0, -2.0, -0.07227075099945068, -2.0, -2.0, 0.03190532326698303, -2.0, 0.09951639175415039, -2.0, -2.0, -2.031817853450775, -0.540336936712265, -2.0, -2.0, -0.07094381377100945, 0.2810915559530258, -2.0, -2.0, -0.07320239394903183, -2.0, -2.0], "value": [0.003324882480825821, -0.06131798640445447, -0.07463187175677237, 0.3860984732458206, 1.4060511086272385, 1.9357660445459446, -0.08464774882204613, -0.20482944428885128, -1.0921678611244503, 0.35585042130150685, 1.34711413971948, 0.40493942962728047, 1.5730121336014935, 1.8037578681811146, 0.01104699859150588, 0.5336354378781356, 2.830083986748958, 1.7259748439520275, 0.00975665676610677, 0.07955171724280499, -0.2837156536617139, 0.8091994912175317, 0.0010322742065195021, -0.7122493638751911, 0.04378034801175706]}, {"children_left": [1, 2, 3, 4, -1, -1, 7, -1, -1, 10, 11, -1, -1, 14, -1, -1, 17, 18, 19, -1, -1, 22, -1, -1, 25, 26, -1, -1, 29, -1, -1], "children_right": [16, 9, 6, 5, -1, -1, 8, -1, -1, 13, 12, -1, -1, 15, -1, -1, 24, 21, 20, -1, -1, 23, -1, -1, 28, 27, -1, -1, 30, -1, -1], "feature": [16, 12, 1, 16, -2, -2, 14, -2, -2, 11, 7, -2, -2, 14, -2, -2, 16, 5, 2, -2, -2, 2, -2, -2, 8, 6, -2, -2, 7, -2, -2], "threshold": [0.1550631746649742, -0.07138782739639282, -0.08131415396928787, -0.17013495787978172, -2.0, -2.0, -1.2266470789909363, -2.0, -2.0, 4.7867817878723145, -0.09671008959412575, -2.0, -2.0, -1.6055509448051453, -2.0, -2.0, 0.2117966040968895, -0.08387625589966774, -0.07317090407013893, -2.0, -2.0, -0.07247858121991158, -2.0, -2.0, 1.0146388411521912, -0.06891251355409622, -2.0, -2.0, -0.10138726979494095, -2.0, -2.0], "value": [-0.0041605987712851995, -0.034585440842849764, -0.053160359171828826, -0.39873050204684823, -1.4728350027447774, -1.9246432951169652, -0.048946089136767616, 0.4978007040187376, -0.3375624103114821, 0.04763953096009745, 0.06007209710746905, -1.7965844022737247, 0.9186193733961611, -0.40614913341896564, -1.4720335277342547, -1.967073625795731, 0.02050655406362871, 0.22882222912636166, 0.482469955141077, 3.688195442798046, 1.8987491180152243, 0.03858643461532515, -1.3315942523385607, 1.0972011236645762, 0.011411690911201715, -0.0013699863505984508, 0.20613549011269647, -0.2581023817992682, 0.14501065086192247, -1.6795769355941579, 0.9857366966897001]}, {"children_left": [1, 2, 3, 4, -1, -1, 7, -1, -1, 10, 11, -1, -1, 14, -1, -1, 17, 18, 19, -1, -1, 22, -1, -1, 25, 26, -1, -1, 29, -1, -1], "children_right": [16, 9, 6, 5, -1, -1, 8, -1, -1, 13, 12, -1, -1, 15, -1, -1, 24, 21, 20, -1, -1, 23, -1, -1, 28, 27, -1, -1, 30, -1, -1], "feature": [9, 15, 11, 10, -2, -2, 2, -2, -2, 5, 13, -2, -2, 2, -2, -2, 11, 9, 13, -2, -2, 16, -2, -2, 1, 2, -2, -2, 12, -2, -2], "threshold": [0.37286315858364105, -0.07095231115818024, -0.06333767250180244, -0.04923497885465622, -2.0, -2.0, -0.07318514212965965, -2.0, -2.0, -0.08400434628129005, 0.6674655973911285, -2.0, -2.0, -0.07308603823184967, -2.0, -2.0, -0.06297674402594566, 0.9083167612552643, 0.6148242354393005, -2.0, -2.0, -0.22823048382997513, -2.0, -2.0, -0.08011125028133392, -0.07307116687297821, -2.0, -2.0, -0.07224468141794205, -2.0, -2.0], "value": [-0.002554864364396572, 0.013464253744168396, 0.14210869368327655, -0.12215655579129413, 1.5595554324565069, -1.3686359323539432, 0.2648032737964701, 0.6790170074047661, 1.8239590706919278, 0.003061054459151755, -0.556933919989645, -3.4723452813320477, -1.9271081845878144, 0.006394357878489829, -0.3157075581499512, 0.15849649797645057, -0.026871974401774922, 0.010077570493945696, -0.06195439128159251, -0.6081774136879173, 1.404908181318801, 0.06924668195242345, 1.1711690377357624, 0.1624348066975003, -0.11576003051883876, -0.3274949060629728, -1.218494138059012, -1.6446501935757851, -0.06030565835251791, 0.9968056179568052, -0.6150319883727894]}, {"children_left": [1, 2, 3, 4, -1, -1, 7, -1, -1, 10, 11, -1, -1, 14, -1, -1, 17, 18, 19, -1, -1, 22, -1, -1, 25, 26, -1, -1, 29, -1, -1], "children_right": [16, 9, 6, 5, -1, -1, 8, -1, -1, 13, 12, -1, -1, 15, -1, -1, 24, 21, 20, -1, -1, 23, -1, -1, 28, 27, -1, -1, 30, -1, -1], "feature": [10, 5, 5, 0, -2, -2, 2, -2, -2, 9, 5, -2, -2, 1, -2, -2, 11, 0, 10, -2, -2, 13, -2, -2, 9, 11, -2, -2, 0, -2, -2], "threshold": [-0.04918999969959259, -0.0832100361585617, -0.08369885757565498, -0.08761501684784889, -2.0, -2.0, -0.07170189917087555, -2.0, -2.0, -0.8765285313129425, -0.08303637057542801, -2.0, -2.0, -0.0746118426322937, -2.0, -2.0, -0.06324367225170135, -0.08765524998307228, -0.049180274829268456, -2.0, -2.0, 1.993284821510315, -2.0, -2.0, 0.37286315858364105, -0.06323172152042389, -2.0, -2.0, -0.08756548911333084, -2.0, -2.0], "value": [0.008851852215157583, 0.029213972074917854, 0.020350098401182543, 0.03276122175168085, 0.04710730515363538, 0.6633168702610456, -0.10345842477817851, -0.8423969662747285, 1.2019284904068916, 0.27851041914872265, 0.5459153842304793, 5.416454158951542, 1.8489453121253923, 0.18937543078813715, 1.455386312586006, -1.2817523671811246, -0.012567443167795652, 0.10942292501579111, -0.24030585101071142, 1.1952645476204047, -1.5333062794759367, 0.16322735209679146, 1.2424716926982802, -2.198503930478347, -0.02636032399257304, 0.007426095116584766, -1.5937552672072508, 0.07681727621667506, -0.13716524687744538, -1.3855841570273546, -0.39022216484193456]}, {"children_left": [1, 2, 3, 4, -1, -1, 7, -1, -1, 10, 11, -1, -1, 14, -1, -1, 17, 18, 19, -1, -1, 22, -1, -1, 25, 26, -1, -1, 29, -1, -1], "children_right": [16, 9, 6, 5, -1, -1, 8, -1, -1, 13, 12, -1, -1, 15, -1, -1, 24, 21, 20, -1, -1, 23, -1, -1, 28, 27, -1, -1, 30, -1, -1], "feature": [8, 3, 10, 11, -2, -2, 12, -2, -2, 5, 16, -2, -2, 9, -2, -2, 8, 13, 16, -2, -2, 4, -2, -2, 8, 16, -2, -2, 2, -2, -2], "threshold": [-1.1543766856193542, -0.838619589805603, -0.049212342128157616, -0.06302468851208687, -2.0, -2.0, -0.071840550750494, -2.0, -2.0, -0.08394593000411987, 0.15476705878973007, -2.0, -2.0, 0.8636956214904785, -2.0, -2.0, -0.874047189950943, 1.072346031665802, 0.512913167476654, -2.0, -2.0, 0.22125177830457687, -2.0, -2.0, -0.8583850860595703, -0.1336130052804947, -2.0, -2.0, -0.07319923862814903, -2.0, -2.0], "value": [0.004987068154095346, -0.05203399987244004, 0.013828107719321246, -0.08976995749472284, -1.0156847507989462, 0.8913290336998524, 0.18155830854205926, 1.6052599394564981, 0.19353601227210648, -0.12448231822337746, 0.009980415321258995, 1.1093765259651398, -0.9282343613130931, -0.20689496136363852, -1.4482274465102525, -0.3958898337333823, 0.012433849426217496, 0.08234319234320654, 0.10688729019765418, 0.9021209071566038, 0.018083391389809512, -0.26536486059480185, -1.6098091490777051, 1.2189817563789918, 0.0035113386191403494, -0.25239873658613804, 1.1175592604961988, -1.740374386584335, 0.006048690639589295, -0.38298723366170184, 0.08737228264969557]}, {"children_left": [1, 2, 3, 4, -1, -1, 7, -1, -1, 10, 11, -1, -1, 14, -1, -1, 17, 18, 19, -1, -1, 22, -1, -1, 25, 26, -1, -1, 29, -1, -1], "children_right": [16, 9, 6, 5, -1, -1, 8, -1, -1, 13, 12, -1, -1, 15, -1, -1, 24, 21, 20, -1, -1, 23, -1, -1, 28, 27, -1, -1, 30, -1, -1], "feature": [12, 1, 0, 14, -2, -2, 15, -2, -2, 1, 7, -2, -2, 2, -2, -2, 12, 5, 1, -2, -2, 11, -2, -2, 16, 16, -2, -2, 9, -2, -2], "threshold": [-0.07227075099945068, -0.08042242005467415, -0.08771785348653793, 0.09951639361679554, -2.0, -2.0, -0.07094491273164749, -2.0, -2.0, -0.0786258839070797, -0.10046109929680824, -2.0, -2.0, -0.07307052612304688, -2.0, -2.0, -0.07218404486775398, -0.08394783362746239, -0.07626916468143463, -2.0, -2.0, -0.06334372237324715, -2.0, -2.0, 1.1510035395622253, 0.48163753747940063, -2.0, -2.0, -0.698044016957283, -2.0, -2.0], "value": [-0.006750756128044536, 0.051288913342198594, -0.022216641396837822, -0.06950495280764113, -0.9250293289128393, 0.900681761379764, 0.24049619977429174, 2.0710886442387606, 0.7540246586551435, 0.15454671642798778, 0.238538799237788, 1.3925465402266062, -1.7689862284485547, 0.031028947590046336, -1.0938973387975406, 1.1596959536591793, -0.01400571481182494, -0.04147768088016778, 0.018458145059263534, -0.0029172708861117777, 1.8007491327789562, -0.07166275263951905, 0.4599627934350895, -0.4807270199068903, 0.015004122130572747, 0.019734708174143786, -0.057479947977788964, 0.5266101337572066, -0.2901186776797605, 0.07372229825787115, -1.8787537584156344]}, {"children_left": [1, 2, 3, 4, -1, -1, 7, -1, -1, 10, 11, -1, -1, 14, -1, -1, 17, 18, 19, -1, -1, 22, -1, -1, 25, 26, -1, -1, 29, -1, -1], "children_right": [16, 9, 6, 5, -1, -1, 8, -1, -1, 13, 12, -1, -1, 15, -1, -1, 24, 21, 20, -1, -1, 23, -1, -1, 28, 27, -1, -1, 30, -1, -1], "feature": [9, 13, 16, 9, -2, -2, 11, -2, -2, 10, 12, -2, -2, 1, -2, -2, 3, 13, 13, -2, -2, 8, -2, -2, 6, 6, -2, -2, 4, -2, -2], "threshold": [-1.0550130605697632, 0.6958349645137787, 0.7655476927757263, -1.2334976196289062, -2.0, -2.0, -0.05980468727648258, -2.0, -2.0, -0.04915052838623524, -0.07222399115562439, -2.0, -2.0, -0.06907911226153374, -2.0, -2.0, 0.5674302577972412, 1.2606501579284668, 1.212644338607788, -2.0, -2.0, 1.3445929288864136, -2.0, -2.0, -0.06930701807141304, -0.06938454508781433, -2.0, -2.0, -0.36230865120887756, -2.0, -2.0], "value": [-0.00013512973138761475, -0.04726058658661046, -0.09147986751620514, -0.12719478430169345, -0.4005463726583123, -1.5486692565610698, 0.040665324590101505, 0.7579338306143913, -1.8549316954395123, 0.04310055270430049, -0.17853965470991717, -1.19546631618601, 1.8956797595535695, 0.12132650826225969, 1.3306475327667775, -0.14552410837135674, 0.00844427723835386, -0.005405335503432621, 0.002513132466572078, -0.0020603004718157685, 1.6988010941483713, -0.16773392888852892, -1.2812220549823763, 1.4810864405570439, 0.045310627346252186, -0.12285781828003846, 0.34181129089484863, -1.2624773017667246, 0.06700978162061227, 0.0073346098462633135, 0.96164330383673]}, {"children_left": [1, 2, 3, 4, -1, -1, 7, -1, -1, 10, 11, -1, -1, 14, -1, -1, 17, 18, 19, -1, -1, 22, -1, -1, 25, 26, -1, -1, 29, -1, -1], "children_right": [16, 9, 6, 5, -1, -1, 8, -1, -1, 13, 12, -1, -1, 15, -1, -1, 24, 21, 20, -1, -1, 23, -1, -1, 28, 27, -1, -1, 30, -1, -1], "feature": [4, 4, 9, 9, -2, -2, 16, -2, -2, 16, 2, -2, -2, 2, -2, -2, 15, 16, 14, -2, -2, 11, -2, -2, 13, 6, -2, -2, 1, -2, -2], "threshold": [2.2637133598327637, 1.6801528334617615, 1.7114971280097961, 0.6405899524688721, -2.0, -2.0, 0.4774472862482071, -2.0, -2.0, 0.7261941432952881, -0.07314106076955795, -2.0, -2.0, -0.07259216159582138, -2.0, -2.0, -0.07089915126562119, 0.31619487702846527, -0.18466150760650635, -2.0, -2.0, -0.06320405006408691, -2.0, -2.0, -1.7570279240608215, -0.014882737770676613, -2.0, -2.0, -0.07970278337597847, -2.0, -2.0], "value": [-0.0003871335333550875, 0.0035505492646708547, -0.0007305787773198457, -0.00594622332935491, 0.05198898329073601, -0.2834159080349025, 0.11058225626742861, -0.1056581470543973, 1.3224000689099602, 0.15499545375009197, 0.24483617519718184, -1.669277133793388, 1.466536419060834, -0.18639928774884984, -0.6798518121056379, -2.477223852639263, -0.09587594138548404, -0.1980100617675094, -0.1591101524666142, -1.3435592052726661, -1.1772233882030214, -0.3536096989710901, -1.332007386828246, -1.8762264401756958, 0.03179170909204759, -0.1516051285618297, -1.266446166453404, 1.0523056780611213, 0.11515390802562818, 1.1848474755395342, 1.0612196099026578]}, {"children_left": [1, 2, 3, -1, 5, -1, -1, 8, 9, -1, -1, -1, 13, 14, 15, -1, -1, 18, -1, -1, 21, 22, -1, -1, 25, -1, -1], "children_right": [12, 7, 4, -1, 6, -1, -1, 11, 10, -1, -1, -1, 20, 17, 16, -1, -1, 19, -1, -1, 24, 23, -1, -1, 26, -1, -1], "feature": [14, 9, 4, -2, 4, -2, -2, 6, 3, -2, -2, -2, 14, 4, 16, -2, -2, 2, -2, -2, 10, 6, -2, -2, 7, -2, -2], "threshold": [-1.6055509448051453, -0.5195594877004623, -1.5294294953346252, -2.0, 0.22125181555747986, -2.0, -2.0, -0.029937091749161482, -1.3808467388153076, -2.0, -2.0, -2.0, -1.4160990118980408, -1.4321694374084473, -1.298836275935173, -2.0, -2.0, -0.07308623567223549, -2.0, -2.0, -0.04865695349872112, -0.06060040555894375, -2.0, -2.0, -0.09944242611527443, -2.0, -2.0], "value": [0.006504030767519057, -0.1800470312922848, -0.304273658058879, -1.8171257915086936, -0.25580475531736263, -1.3860299562551823, -1.267499345088943, -0.11793371790898766, -0.1517742320117009, -1.4109152758936472, -1.1610633953810554, 1.135009210281208, 0.008999697149590005, 0.15097961969265913, -0.2853270589126518, -1.7877904596027783, -1.1494302891051198, 0.2181037240934762, -1.4369772613865686, 1.4931850378850202, 0.006585072616544614, -0.0001553375616809087, 0.04617761854771277, -0.5476512621883468, 0.056464107935413496, 1.448869431319646, 0.4518923148979605]}, {"children_left": [1, 2, 3, 4, -1, -1, 7, -1, -1, 10, 11, -1, -1, 14, -1, -1, 17, 18, 19, -1, -1, 22, -1, -1, 25, 26, -1, -1, 29, -1, -1], "children_right": [16, 9, 6, 5, -1, -1, 8, -1, -1, 13, 12, -1, -1, 15, -1, -1, 24, 21, 20, -1, -1, 23, -1, -1, 28, 27, -1, -1, 30, -1, -1], "feature": [9, 4, 2, 12, -2, -2, 1, -2, -2, 16, 15, -2, -2, 16, -2, -2, 8, 9, 14, -2, -2, 10, -2, -2, 10, 13, -2, -2, 5, -2, -2], "threshold": [0.37286315858364105, 0.5130319893360138, -0.07320231199264526, -0.07227205857634544, -2.0, -2.0, -0.07943654805421829, -2.0, -2.0, 1.036401093006134, -0.07095174491405487, -2.0, -2.0, 1.0702676177024841, -2.0, -2.0, -0.3133583962917328, 0.4621054232120514, -0.989832192659378, -2.0, -2.0, -0.049112915992736816, -2.0, -2.0, -0.049173394218087196, -0.14624075591564178, -2.0, -2.0, -0.08299925178289413, -2.0, -2.0], "value": [-0.004477899881816338, 0.010503967897249533, -0.006521996177721838, -0.08338682633410091, 0.2290920473591502, -0.9509041224243284, 0.004185542351524993, 0.3580708032033769, -0.13325709845751577, 0.09258703680605895, 0.06884048099247161, 1.1506478890180902, 0.21848901502532428, 0.27392437210981646, 2.2823280550505136, 1.1417764110732904, -0.02775029561727537, -0.011199157178363452, -0.1598832911706125, 2.257276053605532, -1.07678995824586, 0.0019354836336726831, -0.10000576602304989, 1.1358828161956165, -0.13395343393362708, -0.04647086817550229, -0.9953451919233008, 0.38675758321817283, -0.34641109363193, -1.8211528336014857, 0.15150296714737294]}, {"children_left": [1, 2, 3, 4, -1, -1, 7, -1, -1, 10, 11, -1, -1, 14, -1, -1, 17, 18, 19, -1, -1, 22, -1, -1, 25, 26, -1, -1, 29, -1, -1], "children_right": [16, 9, 6, 5, -1, -1, 8, -1, -1, 13, 12, -1, -1, 15, -1, -1, 24, 21, 20, -1, -1, 23, -1, -1, 28, 27, -1, -1, 30, -1, -1], "feature": [13, 3, 3, 15, -2, -2, 7, -2, -2, 5, 10, -2, -2, 12, -2, -2, 6, 1, 8, -2, -2, 11, -2, -2, 6, 5, -2, -2, 10, -2, -2], "threshold": [0.3012499064207077, -0.4866810739040375, -1.1287111639976501, -0.07096676528453827, -2.0, -2.0, -0.1009608842432499, -2.0, -2.0, -0.08403410762548447, -0.04922691360116005, -2.0, -2.0, -0.07130859792232513, -2.0, -2.0, -0.06930039823055267, -0.0805104412138462, 0.5245568156242371, -2.0, -2.0, -0.06327895820140839, -2.0, -2.0, -0.0685892291367054, -0.08324559032917023, -2.0, -2.0, -0.049149224534630775, -2.0, -2.0], "value": [0.006061766100415536, -0.011636273094826207, 0.0277044832339661, -0.023590170836249574, -0.9837294780840997, 0.16027131555716687, 0.07242289960287208, 1.4318842718978526, 0.16293451904319986, -0.03933924941638732, 0.42425520612677053, 1.9967317708855428, 1.403232647221607, -0.043854779827522, -0.34711930214953973, 0.9733409703706323, 0.030811002969750933, -0.050890597752665405, -0.1444041879765421, -1.0797486399810483, 1.3251960642813232, 0.0577058296040946, 1.2158396958025233, -0.2170635274881771, 0.048355897996680094, 0.11296951768927779, 0.7322215782886571, -0.25834295695700743, 0.0015913445175071443, -0.7709706824247132, 0.29768818541080544]}, {"children_left": [1, 2, 3, 4, -1, -1, 7, -1, -1, 10, 11, -1, -1, 14, -1, -1, 17, 18, 19, -1, -1, -1, 23, 24, -1, -1, 27, -1, -1], "children_right": [16, 9, 6, 5, -1, -1, 8, -1, -1, 13, 12, -1, -1, 15, -1, -1, 22, 21, 20, -1, -1, -1, 26, 25, -1, -1, 28, -1, -1], "feature": [16, 2, 7, 13, -2, -2, 5, -2, -2, 2, 6, -2, -2, 1, -2, -2, 11, 10, 7, -2, -2, -2, 16, 6, -2, -2, 6, -2, -2], "threshold": [0.8602610528469086, -0.07268689572811127, -0.09801672026515007, -1.803795337677002, -2.0, -2.0, -0.08199695870280266, -2.0, -2.0, -0.07250446081161499, -0.06529231742024422, -2.0, -2.0, -0.06621795147657394, -2.0, -2.0, -0.06317759305238724, -0.049123428761959076, -0.10129904374480247, -2.0, -2.0, -2.0, 0.9805823862552643, -0.05659115128219128, -2.0, -2.0, -0.06637122482061386, -2.0, -2.0], "value": [-0.0008948416148508434, -0.008951646662916368, -0.02742230132210003, -0.01484180882397407, 1.5857145034327245, -0.11331377890210144, -0.12899812964030233, -0.9360700732874384, 1.1730608152872444, 0.020529202793109692, 0.1498925635839896, 0.37640032733138434, 2.2366264710555828, -0.0052424042394484185, 0.32365495939595823, -0.5112577435204522, 0.0564379585932583, -0.05556336551335869, -0.0407579663761081, -1.4198170894268465, -0.01054193938306026, -3.412980087774124, 0.13166272851561298, 0.23981800607632178, 1.515537762677612, -1.4529645662931887, 0.03852901728278046, 0.4268805741219237, -1.6629138199120355]}, {"children_left": [1, 2, 3, 4, -1, -1, 7, -1, -1, 10, 11, -1, -1, 14, -1, -1, 17, 18, 19, -1, -1, 22, -1, -1, 25, 26, -1, -1, 29, -1, -1], "children_right": [16, 9, 6, 5, -1, -1, 8, -1, -1, 13, 12, -1, -1, 15, -1, -1, 24, 21, 20, -1, -1, 23, -1, -1, 28, 27, -1, -1, 30, -1, -1], "feature": [8, 14, 16, 5, -2, -2, 8, -2, -2, 9, 2, -2, -2, 11, -2, -2, 8, 1, 10, -2, -2, 15, -2, -2, 8, 7, -2, -2, 8, -2, -2], "threshold": [-1.1415575742721558, -0.4688394069671631, -1.617160052061081, -0.08273696154356003, -2.0, -2.0, -1.2785205841064453, -2.0, -2.0, 0.9975590407848358, -0.07308580726385117, -2.0, -2.0, -0.06268360465765, -2.0, -2.0, -0.9721115827560425, -0.08109821006655693, -0.049222225323319435, -2.0, -2.0, -0.0709625594317913, -2.0, -2.0, -0.9410538375377655, -0.09953837096691132, -2.0, -2.0, -0.9265438318252563, -2.0, -2.0], "value": [0.0006160432407200804, -0.054740713092727815, 0.18719285870385505, -0.32131754575027754, -1.3314627881194603, -1.649317907697017, 0.2888949395946816, 1.8359706777975395, 1.2187904484940923, -0.08595794816325467, -0.1553662510085974, 0.8966806083834991, -1.3120640045165166, 0.019092456143210076, -0.053752236739894516, 2.126981821584893, 0.00784547037381963, 0.10048103179555591, 0.3990734064923524, 2.0901868417291656, 1.4267500988532833, 0.06153420031336503, -1.3332936924300862, 0.7710921913964138, 0.0014398198499761615, -0.18521687392303854, 0.7561899199073324, -1.5463462373045347, 0.004210701943772602, 1.2788457338741726, 0.012205978392040982]}, {"children_left": [1, 2, 3, 4, -1, -1, 7, -1, -1, 10, 11, -1, -1, 14, -1, -1, 17, 18, 19, -1, -1, 22, -1, -1, 25, 26, -1, -1, 29, -1, -1], "children_right": [16, 9, 6, 5, -1, -1, 8, -1, -1, 13, 12, -1, -1, 15, -1, -1, 24, 21, 20, -1, -1, 23, -1, -1, 28, 27, -1, -1, 30, -1, -1], "feature": [16, 11, 11, 8, -2, -2, 11, -2, -2, 0, 0, -2, -2, 10, -2, -2, 16, 2, 0, -2, -2, 15, -2, -2, 8, 11, -2, -2, 8, -2, -2], "threshold": [0.35490381717681885, -0.06292902678251266, -0.0629957877099514, -0.5515331625938416, -2.0, -2.0, -0.06297986209392548, -2.0, -2.0, -0.08507941290736198, -0.08568991348147392, -2.0, -2.0, -0.0491131991147995, -2.0, -2.0, 0.39849916100502014, -0.07312918826937675, -0.08766045048832893, -2.0, -2.0, -0.07047977671027184, -2.0, -2.0, -0.6445639729499817, -0.06249522790312767, -2.0, -2.0, -0.5989395678043365, -2.0, -2.0], "value": [-0.0038589125334882305, -0.022804231602639627, 0.008573256545548334, -0.001761227664921751, 0.3332919015486356, -0.3555203819707019, 0.22731983900049846, 2.4444811458949323, 0.6938344917219967, -0.05715160546032695, -0.10980379141679314, -0.5343794364085505, -1.442222707154487, 0.019433392294533048, 1.8781346102479575, -0.04159217177456253, 0.02024900598200694, 0.20770184792909258, 0.0013884670487171805, 1.241083738527428, -1.2716796072683512, 0.2827248955219564, 1.6578793211869765, 1.2130235440994177, 0.012945648503549036, -0.04778307054514331, -0.406510762560582, 0.984309710893331, 0.0345428337990347, 1.48386867868465, 0.145491303736828]}, {"children_left": [1, 2, 3, 4, -1, -1, 7, -1, -1, 10, 11, -1, -1, 14, -1, -1, 17, 18, -1, -1, 21, 22, -1, -1, 25, -1, -1], "children_right": [16, 9, 6, 5, -1, -1, 8, -1, -1, 13, 12, -1, -1, 15, -1, -1, 20, 19, -1, -1, 24, 23, -1, -1, 26, -1, -1], "feature": [1, 9, 3, 3, -2, -2, 8, -2, -2, 7, 14, -2, -2, 12, -2, -2, 7, 1, -2, -2, 2, 13, -2, -2, 7, -2, -2], "threshold": [-0.07721433416008949, 0.5513477027416229, -0.48025205731391907, -0.5302685797214508, -2.0, -2.0, 0.053638655692338943, -2.0, -2.0, -0.09485459327697754, 0.004790429025888443, -2.0, -2.0, -0.07153095677495003, -2.0, -2.0, -0.10133147239685059, -0.07416177541017532, -2.0, -2.0, -0.07293060049414635, 1.3334141373634338, -2.0, -2.0, -0.10088420659303665, -2.0, -2.0], "value": [0.002612044315564886, 0.017534886482789353, 0.042999239739424135, 0.10956041880945666, 0.5467737053116262, 1.7136432812109728, 0.019462396950401223, 0.4686084172249946, -0.09400422419526364, -0.021708878709253872, -0.04219521469414436, -0.48297107783214466, -0.005626907575787637, 0.1209890478061903, 1.307768650105131, -0.9474059175220578, -0.024592018889903325, 0.55836772118867, 1.8407412120666213, 2.9411320129435237, -0.028235517265394416, -0.11215223232087451, -0.7810170178607989, 2.290224452183556, -0.008870121483360542, 0.8790219793517908, -0.13132997114010947]}, {"children_left": [1, 2, 3, 4, -1, -1, 7, -1, -1, 10, -1, 12, -1, -1, 15, 16, 17, -1, -1, 20, -1, -1, 23, 24, -1, -1, 27, -1, -1], "children_right": [14, 9, 6, 5, -1, -1, 8, -1, -1, 11, -1, 13, -1, -1, 22, 19, 18, -1, -1, 21, -1, -1, 26, 25, -1, -1, 28, -1, -1], "feature": [13, 13, 2, 7, -2, -2, 2, -2, -2, 7, -2, 7, -2, -2, 1, 10, 10, -2, -2, 4, -2, -2, 5, 7, -2, -2, 15, -2, -2], "threshold": [0.38596703112125397, 0.38257333636283875, -0.07267148047685623, -0.097496896982193, -2.0, -2.0, -0.07260102033615112, -2.0, -2.0, -0.10104704275727272, -2.0, -0.09855568781495094, -2.0, -2.0, -0.08078501373529434, -0.04911612346768379, -0.04919758439064026, -2.0, -2.0, -0.36230863630771637, -2.0, -2.0, -0.0832466185092926, -0.10078401491045952, -2.0, -2.0, -0.07037681713700294, -2.0, -2.0], "value": [0.0036103845715140448, -0.015189812092635865, -0.013187455361297921, -0.03240093705138353, -0.12102335771294473, -0.9383711611784689, 0.020436137596351916, 1.1997090209163503, -0.020144171077404127, -0.39697249553440517, -2.4624584041365893, -0.29850785842983457, -1.444401500886766, -1.4071505609134511, 0.035975992601113414, -0.08427445425442408, -0.1426424619007649, 0.059540229462095896, -1.5246168157517952, 0.07915596715533021, 1.8554426400133641, 0.39575562944999365, 0.05141354996770271, 0.0916564417785589, 0.24007919296572183, 0.7396850261781678, -0.015657936383724327, -1.8252546948000266, 0.010559257902609915]}, {"children_left": [1, -1, 3, 4, -1, 6, -1, -1, 9, 10, -1, -1, 13, -1, -1], "children_right": [2, -1, 8, 5, -1, 7, -1, -1, 12, 11, -1, -1, 14, -1, -1], "feature": [8, -2, 6, 12, -2, 0, -2, -2, 14, 6, -2, -2, 12, -2, -2], "threshold": [-1.7263049483299255, -2.0, -0.06946897506713867, -0.07227934896945953, -2.0, -0.08787066861987114, -2.0, -2.0, -0.18466150760650635, -0.06932032853364944, -2.0, -2.0, -0.07223265618085861, -2.0, -2.0], "value": [0.00746200206625449, 2.484139316709828, 0.006812239857123111, 0.3229726177144292, 1.670275929950871, 0.2838106630327607, 1.4056273356536693, 1.3870538262100394, 0.005764194405662426, 0.023713155326461587, -0.5964454626204895, 0.2281463375937791, -0.009917920518928142, -0.2683641706622209, 0.09692409760697006]}, {"children_left": [1, 2, 3, 4, -1, -1, 7, -1, -1, 10, -1, 12, -1, -1, 15, 16, 17, -1, -1, 20, -1, -1, 23, 24, -1, -1, 27, -1, -1], "children_right": [14, 9, 6, 5, -1, -1, 8, -1, -1, 11, -1, 13, -1, -1, 22, 19, 18, -1, -1, 21, -1, -1, 26, 25, -1, -1, 28, -1, -1], "feature": [5, 5, 0, 11, -2, -2, 8, -2, -2, 0, -2, 3, -2, -2, 5, 6, 5, -2, -2, 1, -2, -2, 5, 12, -2, -2, 11, -2, -2], "threshold": [-0.0839453637599945, -0.0839470848441124, -0.08726810291409492, -0.06104533188045025, -2.0, -2.0, -0.11820033192634583, -2.0, -2.0, -0.08779430016875267, -2.0, 0.32273069024086, -2.0, -2.0, -0.0839390717446804, -0.06923636794090271, -0.08394287154078484, -2.0, -2.0, -0.0807623527944088, -2.0, -2.0, -0.08393492549657822, -0.07226350158452988, -2.0, -2.0, -0.06333280727267265, -2.0, -2.0], "value": [-0.0021604615649537273, 0.024873362604532163, 0.01873961651776605, 0.010999769696999895, 0.10066454122918968, -1.3989489800816217, 0.380964447729622, 1.5124800578230508, 2.431103486318172, 0.5135284675168993, 4.764836997427139, 0.3752280852706429, 1.5257380309004578, 1.6831522498447695, -0.011968835551483833, -0.17125954981269292, 0.06096978594478153, 1.5900260995484121, -1.0335253625138403, -0.3320337053370982, -2.1786666804989383, -1.409449630122793, -0.0065356639022643, 0.29568143611618997, 1.277962945657922, 1.5326541247086933, -0.010331169083029817, 0.5030090588369129, -0.10714385318025951]}, {"children_left": [1, 2, 3, 4, -1, -1, 7, -1, -1, 10, -1, -1, 13, 14, -1, 16, -1, -1, 19, 20, -1, -1, 23, -1, -1], "children_right": [12, 9, 6, 5, -1, -1, 8, -1, -1, 11, -1, -1, 18, 15, -1, 17, -1, -1, 22, 21, -1, -1, 24, -1, -1], "feature": [1, 1, 14, 8, -2, -2, 0, -2, -2, 1, -2, -2, 5, 12, -2, 4, -2, -2, 16, 5, -2, -2, 7, -2, -2], "threshold": [-0.07057343423366547, -0.07063845545053482, 1.5204059481620789, -0.5204009115695953, -2.0, -2.0, -0.08750654384493828, -2.0, -2.0, -0.07058784738183022, -2.0, -2.0, -0.08385313674807549, -0.07227952778339386, -2.0, -0.02189839631319046, -2.0, -2.0, -1.622624158859253, 0.020202245097607374, -2.0, -2.0, -0.10094858333468437, -2.0, -2.0], "value": [-0.0006172241967202204, 0.008458661038724575, 0.007102232436516059, 0.014607135857952619, 0.2594313529661227, -0.03395588078647382, -0.06419435006713127, -0.6895312002896191, 0.32113492552111966, 0.4927036720271619, 1.4289429233586244, 3.1768759916961424, -0.034287347660857344, -0.2109133255256055, 1.163284527734412, -0.23157676124266657, -1.2902552307318713, -1.5573082824668356, -0.016120104223340394, -0.12271085537238238, -1.3712640392476616, 1.0401480435435804, 0.003325505783579433, 1.1537501660913152, -0.08264100638290549]}, {"children_left": [1, 2, 3, 4, -1, -1, 7, -1, -1, 10, 11, -1, -1, 14, -1, -1, 17, 18, 19, -1, -1, 22, -1, -1, 25, 26, -1, -1, 29, -1, -1], "children_right": [16, 9, 6, 5, -1, -1, 8, -1, -1, 13, 12, -1, -1, 15, -1, -1, 24, 21, 20, -1, -1, 23, -1, -1, 28, 27, -1, -1, 30, -1, -1], "feature": [1, 2, 5, 11, -2, -2, 15, -2, -2, 13, 3, -2, -2, 16, -2, -2, 1, 11, 16, -2, -2, 6, -2, -2, 12, 5, -2, -2, 15, -2, -2], "threshold": [-0.0807386115193367, -0.07272735983133316, -0.08391085267066956, -0.0633600689470768, -2.0, -2.0, -0.07076586037874222, -2.0, -2.0, 0.1987372562289238, 0.4862142652273178, -2.0, -2.0, 0.5622320175170898, -2.0, -2.0, -0.08054058253765106, -0.06292950361967087, 1.0312186479568481, -2.0, -2.0, -0.06809132173657417, -2.0, -2.0, -0.07226987183094025, -0.08399815857410431, -2.0, -2.0, -0.07091771438717842, -2.0, -2.0], "value": [-0.002576329542256632, -0.03990197275601717, -0.06753671169547536, -0.01425358941564968, -1.093822168340627, 0.18321601618288472, -0.19067992763107244, -1.373772730932807, 0.26544739848074134, 0.06845529308554255, 0.16370017461253306, 1.1887254209055604, -1.646795021245286, -0.07758685858917633, 0.19643108878846238, -2.0644898354869388, 0.007091115445240916, 0.12243807649161836, 0.1601562844725347, 1.0759318681904537, -1.3335936983507295, -0.20193851214426198, -1.507110097084243, 1.4389339822744225, -0.0011235049260144578, 0.1175031049482839, 1.2165404989152973, 0.38567123149921667, -0.010219475012222635, -0.4908416734184783, 0.0016409100244878345]}, {"children_left": [1, 2, 3, 4, -1, -1, 7, -1, -1, 10, 11, -1, -1, 14, -1, -1, 17, 18, 19, -1, -1, 22, -1, -1, 25, 26, -1, -1, 29, -1, -1], "children_right": [16, 9, 6, 5, -1, -1, 8, -1, -1, 13, 12, -1, -1, 15, -1, -1, 24, 21, 20, -1, -1, 23, -1, -1, 28, 27, -1, -1, 30, -1, -1], "feature": [13, 6, 2, 6, -2, -2, 14, -2, -2, 6, 6, -2, -2, 2, -2, -2, 16, 16, 16, -2, -2, 9, -2, -2, 8, 6, -2, -2, 14, -2, -2], "threshold": [0.511836975812912, -0.06783836334943771, -0.07228481024503708, -0.06893108785152435, -2.0, -2.0, -0.9424692094326019, -2.0, -2.0, -0.06740982457995415, -0.06760966777801514, -2.0, -2.0, -0.07250446081161499, -2.0, -2.0, 0.12365684658288956, -0.0770278200507164, -0.12339626625180244, -2.0, -2.0, -1.0103919208049774, -2.0, -2.0, -0.2520802915096283, -0.06936918944120407, -2.0, -2.0, -0.18466150760650635, -2.0, -2.0], "value": [-0.004316116085794412, -0.02169418185165295, -0.04303601829664687, -0.05718349848090346, -0.16251913628767523, -0.8310169827392351, 0.08133020285798089, 1.8329761732329994, 0.5842895635006593, 0.024619803423308162, 0.24468804881630177, 0.6935208763460601, 1.9256094843176095, -0.0035284605223073013, 0.3638007841259663, -0.3425917191329905, 0.03203596026115445, -0.009459147659758426, 0.01265987734117062, -0.06338395129501552, 1.682350956016974, -0.17811671329184242, 0.6688778368508261, -1.369587968910282, 0.06874317111426981, 0.14842329549897626, -1.3265624812464902, 1.1172905347526827, 0.032254142190432246, 0.5903070135727169, -0.3479363945697547]}, {"children_left": [1, 2, 3, 4, -1, -1, 7, -1, -1, 10, 11, -1, -1, 14, -1, -1, 17, 18, 19, -1, -1, 22, -1, -1, 25, 26, -1, -1, 29, -1, -1], "children_right": [16, 9, 6, 5, -1, -1, 8, -1, -1, 13, 12, -1, -1, 15, -1, -1, 24, 21, 20, -1, -1, 23, -1, -1, 28, 27, -1, -1, 30, -1, -1], "feature": [9, 3, 16, 16, -2, -2, 10, -2, -2, 15, 0, -2, -2, 15, -2, -2, 9, 16, 16, -2, -2, 14, -2, -2, 10, 10, -2, -2, 10, -2, -2], "threshold": [0.37286315858364105, -0.24687308818101883, 0.8431398272514343, 0.8278850317001343, -2.0, -2.0, -0.04922637157142162, -2.0, -2.0, -0.07095231115818024, -0.08778489753603935, -2.0, -2.0, -0.07093437016010284, -2.0, -2.0, 1.4437703490257263, 1.0610672235488892, 0.9209673404693604, -2.0, -2.0, 2.278213620185852, -2.0, -2.0, -0.04914942942559719, -0.0491644162684679, -2.0, -2.0, -0.04903566837310791, -2.0, -2.0], "value": [-0.0014739617008480133, 0.013884620734259456, 0.05466535537517835, 0.0339127688077615, 0.28022745589034964, -1.8325319596448386, 0.1658992193765328, -0.7440730802993701, 1.3424410978376005, -0.002366348709114244, 0.13669602185445517, -0.49029302415418374, 1.4455373591101892, -0.009319467237292689, -1.0326986998891834, -0.009395657461038487, -0.025890169674608624, -0.04648914642257977, -0.03669461967250284, -0.29126150547185176, 1.0321569300668438, -0.24087283115487598, -1.5332100724772568, 1.6435964385116744, 0.043888864059143655, 0.016531385394394773, 0.1938724310067203, -1.6413928323483153, 0.25970897352549605, 1.9742753970705174, 1.1294229432419534]}, {"children_left": [1, 2, 3, 4, -1, -1, 7, -1, -1, 10, 11, -1, -1, 14, -1, -1, 17, 18, 19, -1, -1, 22, -1, -1, 25, 26, -1, -1, 29, -1, -1], "children_right": [16, 9, 6, 5, -1, -1, 8, -1, -1, 13, 12, -1, -1, 15, -1, -1, 24, 21, 20, -1, -1, 23, -1, -1, 28, 27, -1, -1, 30, -1, -1], "feature": [3, 3, 13, 13, -2, -2, 13, -2, -2, 8, 1, -2, -2, 9, -2, -2, 4, 13, 15, -2, -2, 9, -2, -2, 7, 11, -2, -2, 5, -2, -2], "threshold": [0.13743364810943604, 0.07523300871253014, 1.35417902469635, -0.19474127143621445, -2.0, -2.0, 1.4938680529594421, -2.0, -2.0, -1.307549774646759, -0.0613851398229599, -2.0, -2.0, 2.0684661865234375, -2.0, -2.0, -0.36230865120887756, 0.1881028413772583, -0.07047703117132187, -2.0, -2.0, -1.501224398612976, -2.0, -2.0, -0.1013079434633255, -0.06312750652432442, -2.0, -2.0, -0.08394226059317589, -2.0, -2.0], "value": [0.00403062750539023, -0.014944792620728842, -0.0048573949803286135, -0.0006230086201034334, -0.15419912115869594, 0.1859435730160163, -0.22598646045875526, -1.848259414989143, -0.010032153739775434, -0.1815607743363049, 0.3193205326569966, 1.2538785399040124, 1.7735731576579903, -0.21866309337284578, -1.1246727669348118, -3.315177668238764, 